,0,1,2,3,4,5,6,7,8,9,10,11,12,13,14,15,16,17,18,19,20,21,22,23,24,25,26,27,28,29,30,31,32,33,34,35,36,37,38,39,40,41,42,43,44,45,46,47,48,49,50,51,52,53,54,55,56,57,58,59,60,61,62,63,64,65,66,67,68,69,70,71,72,73,74,75,76,77,78,79,80,81,82,83,84,85,86,87,88,89,90,91,92,93,94,95,96,97,98,99
inflation,-0.12576942,0.058200285,0.21840951,0.06638379,0.053780857,-0.22931348,0.52510375,0.21500534,-0.084504694,-0.31502032,0.047502637,-0.40365157,-0.08654393,-0.044955663,-0.063153975,-0.03871731,0.1455662,-0.20108248,-0.15473069,-0.42066073,0.3964521,0.27623802,0.39685273,0.10818407,-0.21207507,-0.13943005,-0.0126287155,0.0045553665,-0.26139513,0.1976271,0.5754122,-0.2272731,0.42076725,-0.24455082,-0.15331174,0.09716063,0.30310366,-0.50023115,-0.3073458,-0.39633083,-0.40726274,-0.33375174,-0.004527113,-0.06143748,-0.13666923,0.030320331,-0.15472467,-0.15156537,0.3367641,0.2773074,0.07712732,0.077015854,0.046129677,0.084677145,-0.14691305,0.09379131,0.23378603,-0.18576345,-0.13229772,0.32462502,0.10829411,-0.002335945,-0.112999916,0.07211207,-0.29944402,-0.11723487,-0.1490102,0.369649,0.0076045236,0.30944812,-0.12311324,0.19675718,-0.12435767,0.12480247,0.45086506,-0.053546786,-0.014045161,0.24120079,-0.068738714,0.07572238,0.16598244,0.17677228,0.0281857,0.17349218,-0.22059643,0.36152568,0.16116935,0.1040815,-0.021050677,-0.18759048,0.15188643,-0.19483367,-0.0940517,-0.025343888,0.39953715,0.09094153,-0.067011885,-0.29856676,0.3604319,-0.11574391
investment,-0.144013,0.19325556,0.030326512,0.34980285,0.34485698,-0.08106956,-0.033200357,0.22974095,-0.040522847,-0.19276814,-0.28496608,-0.41344118,-0.28020975,0.40274316,-0.0775118,-0.09713806,0.25015727,0.23958524,-0.24409887,0.058312867,0.21506965,-0.25376588,0.3505727,-0.24664566,0.19847164,0.16000065,-0.34438568,0.1864761,0.0027456642,0.14702815,0.5913058,-0.35167783,0.0749048,-0.08341652,0.112974875,-0.14056145,0.29508376,0.00275721,0.18978225,-0.010232143,0.19514231,-0.14469664,0.024352917,-0.08848136,-0.33479398,-0.034244224,0.1143327,-0.081319116,0.38282937,0.09055918,0.40127084,-0.64074415,-0.03142453,0.072454296,-0.4680818,0.41287124,0.060129244,-0.08247263,-0.3145199,-0.041079525,-0.1723935,0.28349656,-0.046654236,0.08085874,0.1803147,0.44837114,0.11773668,0.12174241,-0.16424848,0.16267098,0.1258152,-0.09972585,0.45123222,0.3772147,0.17378572,0.047295302,-0.16297892,-0.15743084,0.055115506,-0.28445297,-0.67947096,0.014125574,-0.04629404,-0.06329772,0.0914356,-0.098736964,0.09686311,-0.4699498,0.09505728,-0.1365263,0.060599208,-0.108258925,0.16654359,-0.38088644,0.040060345,0.15386975,0.18656251,0.21004704,-0.2618371,0.033606328
market,-0.25626972,-0.00866717,-0.30614907,-0.0876111,0.22435394,-0.012589078,0.23952259,0.1790409,-0.20949803,-0.21738935,-0.19335562,-0.111223996,0.1382019,0.17259768,0.27061507,-0.08620137,0.028498398,0.18901484,0.0016688803,-0.5401614,0.13059174,0.006759836,0.5226923,-0.08798456,0.26901045,-0.2201566,-0.07600447,0.3900868,-0.17804652,-0.13676246,0.54461807,-0.11989242,0.112653546,0.05213895,-0.17969145,0.053040747,0.19192667,-0.22610019,-0.060889717,0.12437258,0.030108932,-0.20616485,-0.09508622,0.03929701,0.10852647,-0.024765657,-0.1605543,0.09474276,0.3187065,0.13311963,0.2714242,-0.17120565,-0.29622284,-0.04707162,-0.26021558,0.3032395,0.12511073,-0.3550066,0.010990698,0.21766308,0.021328155,0.17323473,0.030611647,0.23926322,-0.07932616,0.099853046,0.18604699,0.22144796,-0.1559816,0.4823701,-0.036782976,0.5012574,0.13026409,0.2695546,0.16287124,-0.17686038,-0.15325028,0.026556704,-0.112755165,0.0035533323,-0.08725279,-0.2550398,-0.05943058,0.23668362,-0.07103802,-0.013377689,-0.17116117,-0.36750802,0.061863497,-0.2179731,0.2261251,0.21911827,0.27767998,-0.0141403545,0.21948442,0.07709297,0.35580215,-0.1252244,0.3428177,0.051089216
growth,-0.21205598,0.15112007,0.25409368,-0.21380612,0.30345038,-0.028546317,0.32059705,0.32765454,-0.113660336,-0.4261517,-0.07170319,-0.15270928,-0.21757385,-0.13070643,0.0029439102,-0.17324856,0.2428673,0.18218587,0.07994444,-0.39819136,0.22132061,-0.38273028,0.7066304,0.14272527,-0.075764105,0.13153864,-0.1939636,-0.06218752,-0.10151703,0.04253709,0.32356703,-0.18132502,0.34450376,-0.28868818,0.109231226,-0.1758504,-0.012259196,-0.46055588,-0.287419,0.03993532,0.019349623,0.035089508,0.08114671,-0.14055766,-0.09916007,-0.17339228,0.061636217,-0.2513338,0.3257024,0.21544324,0.25468493,-0.26105672,-0.044708733,0.036329634,-0.12417646,0.031274565,0.018600468,-0.13975291,-0.09711503,0.1199567,-0.07141966,0.0937516,0.14949737,0.40454397,-0.13128085,-0.19821653,0.17639808,0.29298657,-0.1542863,0.44162408,-0.021815091,0.13289648,-0.13625732,0.20886256,0.21774359,-0.26802897,-0.016065203,0.18632695,-0.34211656,0.2046963,-0.37391117,0.08937373,0.012143068,0.31786174,-0.4547577,0.10162283,0.0021145681,0.03056655,-0.11386594,-0.33428517,0.32738826,-0.14949548,-0.12253027,-0.16438156,0.42454574,0.16473044,0.11660584,-0.11644359,0.20593284,0.09805262
exhibit,-0.03252828,-0.103247076,-0.0044430215,0.08916164,0.33778656,-0.10918524,0.36866608,0.37961182,-0.046096746,-0.3567144,0.066779085,-0.3576387,-0.21145162,0.14920975,-0.17476104,-0.01604416,0.17253526,0.12340394,0.03772103,-0.11289836,0.13946141,-0.28733864,0.36661202,-0.012828061,0.15497476,-0.13577846,-0.19454174,0.25105423,-0.03824051,0.11765594,0.49166626,-0.2804395,0.41718858,-0.2582854,0.115925424,-0.01571728,0.29232925,-0.34367862,-0.09835476,-0.13687886,-0.0011878427,-0.34675577,0.1539587,-0.044716675,-0.05488255,-0.15103953,-0.068384044,-0.16740857,0.47551414,0.07360109,0.22428899,-0.18214056,0.107060894,-0.016387993,-0.33442038,0.31529117,0.029645802,-0.13384031,-0.09156372,0.10681121,0.0059208563,0.17790224,0.12017199,0.17302103,-0.18073095,0.17336962,0.3754559,0.39511663,-0.13567926,0.3936092,0.10059606,-0.02887773,-0.019808926,0.407248,0.30727035,0.05416733,-0.029621199,0.17252341,-0.080214575,0.062472995,-0.23759763,0.021205053,0.009855476,0.118371785,-0.31103453,0.24649899,-0.029798489,-0.25232506,-0.17148954,-0.43021455,0.27766815,-0.19933994,0.03806894,-0.24368694,0.18509716,-0.06826777,0.07051897,-0.023274606,0.08955397,0.07776776
rate,-0.5671518,0.14865275,0.06981091,-0.22084711,-0.17621455,0.0031758284,0.387396,-0.042438217,-0.22625637,-0.24676426,-0.0617678,-0.47455806,-0.1595319,-0.20904633,-0.09587763,-0.39437026,0.030269457,-0.17425537,0.06552069,-0.32440242,0.17851989,0.13508783,0.5249401,0.22080569,-0.2907544,-0.23681921,-0.083643556,-0.09887049,-0.20010567,0.083386995,0.74294657,-0.060859397,0.48377222,-0.0010613964,-0.18233967,0.107425354,0.29090667,-0.32142052,-0.11756738,-0.13859299,-0.024359938,-0.62024283,0.19171983,-0.07062591,-0.124606125,-0.1833965,0.08071513,0.078179106,-0.0049305013,-0.11681579,0.08655743,-0.18798865,0.1138666,0.41989696,-0.26210833,0.2172791,0.42381743,-0.05523674,-0.45662895,0.3192386,0.35582575,0.008729553,0.09974178,-0.051133152,0.021353578,-0.052138757,0.15429084,0.23088652,-0.020179728,0.23156391,-0.13369192,0.14247906,0.06692689,0.37827414,0.4828401,0.36497936,-0.2315293,0.016497685,-0.086206466,-0.14277352,0.10927729,-0.26615772,-0.14497851,0.09487172,-0.13045344,-0.0034605744,-0.020546254,-0.014311543,-0.11048032,-0.19941257,0.29317757,-0.0027743017,-0.16713019,-0.0012311083,0.35855934,-0.18629119,0.041445203,-0.24982768,0.2412409,-0.25165644
global,0.23330584,-0.1738165,0.10728226,-0.012412924,0.32938033,-0.48463568,0.11150748,0.43689063,0.004921014,-0.39981106,-0.036871057,-0.33737096,-0.35379043,0.29295564,0.04106186,0.14033239,-0.034097344,0.36481917,-0.16213045,-0.14562526,0.0898391,-0.47615463,0.3158102,-0.026929999,-0.09474063,-0.018058952,-0.31728524,0.0029585112,0.06402671,0.21856835,0.5792379,-0.23040444,0.26804107,-0.04094095,-0.15685321,-0.21831061,-0.103600405,-0.22678967,-0.19002326,-0.32935807,0.04329744,-0.25634232,0.1288364,-0.20930518,0.041778326,-0.0023704928,-0.04906554,-0.3048091,0.4285398,0.13589638,0.42232376,-0.48194107,0.11073539,-0.08784235,-0.07117165,0.3431143,-0.085086904,-0.24739997,0.022430696,0.04712918,0.08792962,-0.043173354,0.23107567,-0.19344214,-0.31158325,-0.018213551,0.39200664,0.23011622,-0.4003473,0.3954553,0.14335449,-0.12240955,0.24867877,0.40184784,0.2484072,0.24461275,0.13216385,0.19829561,-0.12910847,0.07784106,-0.27189115,0.07173855,-0.05384018,0.1676763,-0.19742529,-0.051250346,0.2902478,-0.18797196,-0.17440191,-0.2758323,0.1311601,-0.008079647,0.007615758,-0.019468412,0.20403415,0.2346442,0.35086083,0.09598975,0.13910195,-0.21606769
asset,0.08080852,-0.2588781,0.45936418,0.2300099,0.28506917,-0.4138197,0.032649036,0.1328897,0.10557398,-0.713207,0.018830802,-0.5017843,-0.49535546,0.42592937,0.036734797,0.08075808,-0.09503065,-0.039512545,-0.31851426,-0.10181086,-0.06807465,0.2421433,0.13253039,-0.34629503,0.0011526971,0.21521857,-0.324788,0.33307594,0.05188153,0.38032097,0.3840314,-0.22869739,0.12720245,-0.19181108,-0.015416413,0.4249204,0.13876233,-0.27506107,-0.11706344,-0.05349117,0.4118009,-0.19818006,0.14887281,-0.024824446,0.47511882,-0.13303044,-0.24577029,0.20380105,0.63195807,0.07573427,0.28639057,-0.56221735,0.24757773,-0.16742136,-0.6791099,0.7663753,-0.075352274,-0.18053807,0.23487487,-0.015650813,-0.067305274,0.2862351,-0.17491819,0.18058495,-0.23335804,0.3782197,0.014943338,0.34390017,-0.078661114,0.38708553,0.21833694,0.08510262,0.45215604,0.45885962,0.21362087,0.40331784,0.29600528,-0.3562144,-0.13523573,-0.1875198,-0.22218381,0.123990804,-0.08479854,-0.043587416,0.11948533,0.3029875,0.014166423,-0.25784028,-0.103064686,0.09600163,0.06477064,-0.29085562,-0.15810995,-0.05227981,-0.22943237,0.020131253,0.11474427,0.16466616,0.089422405,-0.09175792
financial,-0.24049203,0.4283534,-0.2148517,0.010856917,0.07066393,0.13559765,-0.020383878,-0.13519105,-0.21355475,0.21734364,-0.37435895,-0.12365464,0.046481956,0.31356266,0.3310629,-0.16384159,-0.12403088,0.27081227,-0.39556536,-0.52335787,0.069936365,0.03299884,0.52443427,-0.24249598,0.096552245,0.03373024,-0.30908126,-0.14708507,-0.011967658,-0.103393644,0.72190315,-0.2672311,0.005940541,0.33568445,0.09650561,-0.19585873,0.03528578,0.074890085,0.09506792,-0.2608108,0.019123442,-0.042255964,0.04379244,-0.153823,0.122827426,0.0802608,-0.16155463,0.17329617,0.48667997,0.08613327,0.46271157,-0.5467929,-0.26697966,0.13721083,-0.008847215,0.49611163,-0.11402529,-0.11891126,-0.11439014,0.22650392,0.038189646,0.060522377,-0.0029009115,0.2548217,0.080212355,-0.041210514,-0.13546848,0.08125993,-0.34561497,0.42569858,-0.20344648,0.044919632,0.4571721,0.18368535,-0.17148061,-0.22931552,-0.123998836,-0.11707151,-0.11547409,-0.15980612,-0.22730225,-0.4093334,0.013800625,0.3235149,0.1810998,-0.17349066,-0.045215655,-0.33604026,0.18021944,0.2218259,0.22426046,0.01102525,0.2699598,-0.27579245,0.137957,0.20107712,0.30387074,0.108665876,0.22683616,-0.088033296
markets,-0.09635521,-0.14085047,-0.2842968,0.13488565,0.30532402,-0.21115024,0.08441698,0.46276107,-0.37955552,-0.31475562,0.0029881457,-0.27552712,-0.012886573,0.17605115,0.21814084,0.08997489,-0.0903057,0.19442306,0.095764644,-0.43036103,0.006812838,-0.29840973,0.43447164,-0.018403491,0.14183503,-0.11841517,-0.21280894,0.29752237,-0.07718074,-0.21627948,0.6026919,-0.21439645,0.18085851,0.1470477,-0.22652078,0.13321522,0.07383444,-0.21778145,-0.11498629,-0.093526125,0.19747452,-0.24359556,-0.23503883,0.10300102,0.18419224,0.07371835,-0.17018098,0.093206935,0.24383822,0.1547258,0.37136897,-0.23683491,-0.25354555,-0.22982894,-0.12690249,0.261634,0.041327987,-0.36218965,-0.1487904,0.13683878,-0.07831998,0.14507303,0.11720225,-0.0019855027,-0.1968474,0.13415562,0.3068486,0.10085853,-0.21255714,0.35635594,0.13273416,0.4003473,0.22679318,0.44571465,0.10698204,0.0074053095,-0.0031216203,-0.086137116,-0.11073903,0.043200143,-0.13995224,-0.12656522,0.061983824,0.28428084,-0.13663296,-0.0047400785,-0.029355254,-0.38864893,0.014572728,-0.14171262,0.316126,0.28504294,0.21652505,0.19196646,0.18176171,0.079053886,0.2553683,-0.04496506,0.15250516,0.09163847
equity,-0.10184778,-0.17718424,0.05465929,0.18915918,0.37451783,-0.27061695,0.1317402,0.3160593,-0.30090722,-0.7335809,0.2742987,-0.3879219,-0.16510022,0.1285441,0.25502455,-0.024624744,0.004583118,0.019954804,0.20893463,-0.2482837,0.170389,-0.30511355,0.40691018,-0.15735129,0.08499749,-0.18721485,-0.12646982,0.37668055,0.1177854,-0.1431799,0.44736895,-0.3155566,0.38475433,-0.19452906,0.03629996,0.53069735,0.3848733,-0.32672468,-0.24503183,-0.012096812,0.17860776,-0.30968013,-0.23493394,0.14238887,0.094976924,-0.29417515,-0.19664422,0.15351993,0.4074914,0.027598385,0.27062613,-0.03149589,0.010164976,-0.20671983,-0.5116638,0.24769951,-0.062032115,-0.36204326,0.042324908,0.04781353,-0.20359245,0.25228816,0.06075257,0.41280106,-0.20392469,0.33674723,0.20918794,0.29649383,-0.089641556,0.66983527,0.210987,0.5722969,0.016132591,0.6371126,0.5814707,-0.07499699,0.0011835317,-0.42756662,-0.23730594,0.10866133,0.0359022,-0.01960773,-0.03568884,0.12021493,-0.15558484,0.45623422,-0.24383692,-0.684895,0.114670284,-0.18345965,0.48588312,-0.15988702,-0.093685,0.0897211,0.0402109,0.0025266274,-3.8957398e-05,-0.14076409,-0.16704413,0.08377741
real,0.013587687,0.05214523,0.30408415,0.058457673,0.3205563,-0.23982196,-0.029860578,0.2746876,-0.35960168,-0.44736123,-0.035855636,-0.2732279,-0.19289365,-0.08902059,-0.009080312,-0.3646908,0.10447192,-0.21382657,0.075895354,-0.5618562,0.034905784,-0.42016792,0.5422605,-0.25355732,-0.24625792,0.00021522219,-0.42357603,0.2909156,0.11052851,0.056744758,0.21052358,-0.2936772,0.39061776,-0.29404548,0.107351385,0.08114341,0.15714978,-0.1443822,-0.2624413,-0.18243188,-0.23792246,-0.079081915,0.17879534,0.058509555,-0.19219083,-0.41540313,0.12694028,-0.15888597,0.3285462,0.19265223,0.15645258,-0.1867532,0.4113621,0.10559632,-0.48508006,-0.12269196,-0.19912536,0.027946286,-0.011289667,0.020628413,0.175527,0.10072678,0.2700661,0.44296697,-0.1544608,0.28466058,0.21132202,0.6139051,-0.3339995,0.5196905,0.009083103,0.41373742,0.05490398,0.3601025,0.564103,-0.004964243,-0.095396325,0.13115285,-0.24277954,-0.09238937,-0.17943484,0.20229265,-0.37118158,0.2478941,-0.028410427,0.18091995,-0.13882466,-0.21100417,0.31572714,0.054021847,0.3472901,-0.20150556,-0.30970055,-0.20281863,0.42632324,-0.024189588,-0.39561796,0.081863046,0.073003314,-0.1417955
gdp,-0.28795663,-0.08130147,0.48347178,-0.2090943,0.3053936,-0.091008134,0.08078211,0.51254344,-0.081462316,-0.38823044,-0.44320074,-0.4936084,-0.40078402,-0.45758724,-0.11981078,-0.3732038,0.026165145,0.16079414,0.37122527,-0.24258403,0.0005414484,-0.53098357,0.88300085,0.01623432,-0.11728832,0.29569912,-0.51160043,-0.24464957,-0.12899064,-0.015715368,0.24651307,-0.16400817,0.5099644,-0.11071442,-0.051608488,-0.27504498,-0.18776932,-0.37563017,-0.29917228,-0.022267755,-0.06637451,-0.03671278,0.10822169,-0.18252027,-0.39497983,-0.32514602,0.32210693,-0.29010823,0.07387751,0.10737423,0.29931113,-0.37781534,0.24331447,0.14475214,-0.20503865,-0.23414153,0.09240683,-0.17795533,-0.2577784,0.14708531,0.039426174,-0.09698291,0.47784886,0.25067556,-0.23126133,-0.16129285,0.2208747,0.34210178,-0.34570605,0.32123974,-0.041235887,0.24289739,0.093422696,0.09654234,0.1935102,0.04165255,0.009527577,-0.08364434,-0.38312176,0.046249587,-0.35858864,0.034670167,-0.08431445,0.36559132,-0.6292355,-0.16631185,0.25739715,0.093537636,-0.15049465,-0.25970015,0.3806581,-0.101172104,-0.21894053,-0.045135107,0.77937114,0.30735013,-0.15525892,0.13577345,0.18894261,-0.11882073
rates,-0.39350638,0.19429003,-0.07887163,-0.008848927,0.06124243,-0.10697552,0.18447053,0.025923083,-0.3980333,-0.23928031,0.12670144,-0.18363564,-0.20456234,0.13289112,0.1355058,-0.2449501,-0.037591834,0.007085472,-0.07473816,-0.5520034,0.11632904,-0.15845978,0.5437135,0.27765834,-0.24061291,-0.27528983,-0.067010164,-0.15923402,-0.096652955,0.21198714,0.6769307,-0.2632435,0.447832,-0.20497291,-0.034843195,0.07431475,0.13493954,-0.21708728,-0.22206831,-0.25421163,-0.12082745,-0.3956719,0.19468103,0.10930378,0.11804484,-0.100164995,-0.05243815,-0.052135922,0.22084892,0.15111159,0.010579329,0.07766575,0.08307421,0.15866321,-0.07902312,0.23065083,0.07560519,-0.07130624,-0.30451733,0.31001487,0.21487983,0.11551944,0.0526082,0.15022099,-0.11434986,-0.05505929,0.21101841,0.1594121,-0.10718188,0.43037316,-0.055362493,0.10443008,-0.11818211,0.46548998,0.41223237,0.15824167,0.054643434,0.208465,-0.18884175,-0.013318699,0.120147645,-0.18559562,-0.15593076,0.17787902,0.07327117,0.28474128,-0.08904799,-0.12642464,0.039065663,-0.061211523,0.36966875,-0.20518407,-0.025460163,0.011366481,0.19434321,-0.23298655,0.10427119,-0.3512537,0.076172985,0.02757071
returns,-0.35156602,0.0075902864,0.19672745,-0.026458763,0.33239007,0.015579015,0.36652446,0.09365043,0.14890297,-0.79732794,0.2891419,-0.56720686,-0.46792215,-0.12417276,0.07746577,-0.22877981,0.13881733,-0.24232014,0.21674973,-0.06028334,0.27424595,-0.054264985,0.1022074,-0.017149044,0.24522372,-0.22896108,0.09066077,0.18640368,0.14773145,-0.12580472,0.22453558,-0.20206812,0.33915555,-0.14682044,0.064977415,0.30686614,0.5740066,-0.32555628,-0.3331616,0.10670032,0.24964184,-0.35847706,0.2476105,-0.010436903,-0.07147212,-0.5151285,-0.17332023,-0.09496525,0.37761348,-0.005262203,0.3221891,-0.14856815,0.16249794,-0.050490852,-0.47925046,0.3472541,0.10051151,-0.20602997,0.028537786,0.2821118,-0.18879683,0.17573005,0.2856995,0.45149,-0.011649371,0.2505867,-0.09157949,0.4035716,0.06085578,0.5607663,0.12003851,0.17946167,0.04253669,0.15152097,0.41391572,-0.36102608,0.24165094,-0.36262572,-0.10530157,0.11495515,-0.13394073,-0.18550798,-0.1752122,-0.059845306,-0.11904295,0.3877887,-0.19988567,-0.39160916,0.027884344,-0.26097977,0.43575376,-0.45067328,-0.10512011,-0.20312619,-0.030009909,0.066436745,0.06957083,0.0041733827,-0.020115823,0.30413932
risk,-0.21715091,0.07633608,-0.017218316,0.023599738,0.070864335,-0.05225828,0.15514693,0.314098,-0.0010502889,-0.5259052,0.17147732,-0.00064952025,-0.32030925,0.19323713,-0.02023259,-0.015599194,-0.30691049,0.0024989587,0.0005833015,-0.39760375,0.3991093,0.03404283,0.16187657,0.17936905,-0.032483682,-0.021302806,0.12689306,0.12950714,-0.027809363,0.082279354,0.28644323,-0.40931055,0.2851508,-0.21899034,0.092560664,0.06945971,0.33449963,-0.2710924,-0.27979425,-0.0012380793,0.30142254,-0.16585205,0.23669508,0.09915771,0.25869384,-0.3141719,-0.38660362,-0.26524392,0.429991,0.031394526,-0.18190877,-0.16146995,-0.0033408368,0.060927246,-0.110590875,0.38611045,-0.001996524,-0.15651934,0.09116068,0.14442042,0.06924238,0.19291888,-0.16292916,-0.0013252028,-0.09030063,0.14715655,0.04841981,0.28644446,0.1029785,0.27986062,-0.10918775,0.116128094,-0.055644646,0.16215704,0.41505086,0.009632747,0.17935494,0.06349743,-0.2659471,0.21299829,-0.121969715,-0.15961452,-0.27418366,0.18121926,0.064054355,0.33481306,-0.3880799,-0.39741516,0.024714347,-0.16393183,0.1051393,-0.14314449,-0.12452953,-0.2297445,0.038350992,0.047149688,0.17630199,-0.16726114,0.18602282,0.3735073
recession,-0.20179206,-0.3117206,-0.064885736,-0.14861017,0.16442096,0.15098096,0.25963417,0.3986685,0.07286356,-0.4073048,0.07046276,-0.18594612,-0.31650475,0.04468123,-0.43210113,0.24694078,-0.046361562,0.30552873,-0.09290717,-0.31535956,0.5366376,-0.09267737,0.4546374,0.30430314,0.023084095,0.027507495,0.20069315,-0.1506497,-0.25068656,0.0018898367,0.52961963,-0.3233148,0.45003328,-0.3495158,0.13258222,-0.13586637,0.22002506,-0.5413332,-0.26282844,-0.06672097,0.24473614,-0.36027288,0.1826253,0.116211794,0.21247365,-0.03912253,-0.25059772,-0.2609629,0.32821846,-0.016123587,0.05287601,-0.34195668,0.1424634,0.030049087,0.26060423,0.4021551,0.14077133,-0.3163613,0.025079884,0.47893307,0.1638253,-0.04774044,0.15191145,0.07942336,-0.02314635,0.015779939,0.37540895,0.1568139,0.045783985,0.37088796,0.05760881,-0.008383104,-0.21740302,0.31975222,0.21256427,-0.05865705,-0.019472288,0.057135973,-0.009810138,0.22917032,-0.26202565,-0.1830942,-0.18627995,-0.08832149,-0.41074702,0.08484331,-0.25784144,-0.4031961,-0.23554692,-0.36536485,0.29415447,0.048532184,0.07508001,-0.15838487,0.04405028,0.027786186,0.118990146,-0.2186387,0.22769336,0.11731026
prices,0.21140072,0.29371697,0.086596854,0.086647674,0.26293814,-0.2730301,0.47963983,0.3367147,-0.089080244,-0.19429183,0.01042424,-0.38754228,0.17237477,0.10953842,0.037274674,0.14866215,0.26172525,-0.24226205,0.048526887,-0.58267796,0.5096214,-0.13944581,0.09372327,-0.0022167126,0.07531117,-0.39875156,-0.11711201,-0.2297545,-0.11843946,0.1719993,0.39125505,-0.030626697,0.0821776,-0.2975057,-0.05681473,0.15925369,-0.013894591,-0.19742589,-0.44526783,-0.39681044,-0.13929084,-0.31512663,0.0795656,0.038683984,-0.055821933,-0.04708733,-0.43488392,-0.49713525,0.3460123,0.31144667,0.023817128,0.062426623,0.08510857,0.21314788,0.10882384,0.04439426,-0.051112752,-0.023637129,-0.26815572,0.3411209,0.108645715,-0.06748007,-0.15805896,0.2800756,-0.32589287,-0.05521111,-0.08496983,0.27805537,0.057722654,0.25395802,-0.14277762,-0.17988816,-0.04278384,0.06384745,0.50931466,-0.20392382,0.22369285,0.17801014,0.01820698,0.255236,-0.003769935,0.07913952,-0.080393806,0.32827702,-0.09610746,0.3834481,0.139951,0.018213453,0.32880744,-0.41455302,0.22359467,-0.040506348,-0.06538584,-0.06873365,0.4549176,0.23038386,-0.2755762,-0.3626048,0.2735663,0.22442277
strategy,0.0018383987,-0.24110083,-0.121596836,0.17968458,0.29726014,-0.1202582,0.17304687,0.38753393,-0.03590311,-0.29086447,-0.29701692,-0.39217696,-0.2571841,0.23785941,-0.1840623,-0.06718288,0.20276642,0.24623258,0.04983525,0.24949639,0.1660519,-0.36409965,0.24177247,-0.16171595,0.12909673,-0.12526232,-0.31116438,0.27901357,0.0044745672,-0.05031424,0.6127163,-0.28002125,0.17817336,-0.00849675,0.10787897,-0.28133684,0.24385865,-0.30966786,0.26543668,-0.22252117,0.17174612,-0.47578925,0.24433394,-0.14573829,-0.3499654,-0.1123199,-0.08217859,-0.012013015,0.5287308,-0.052592866,0.3011058,-0.59871536,-0.02530306,-0.076325,-0.3512042,0.50733256,0.18706886,-0.06207265,-0.07546464,0.05638715,0.040229123,0.16744035,0.31464347,0.0046564243,0.016904172,0.36883542,0.34890342,0.4853497,-0.29866728,0.20111947,0.32453534,0.016008247,0.44150046,0.30611604,0.468352,0.14854223,-0.20234284,0.046175864,-0.042945802,-0.21138182,-0.5799503,0.066780314,-0.107504286,0.12422143,-0.06866016,-0.091260545,0.08945897,-0.3236413,-0.20565307,-0.4058899,0.14817628,0.0679612,0.19571474,-0.18333428,0.14374825,0.04758138,0.20940734,0.081725486,0.013323703,-0.26080838
investors,-0.26420486,0.16087037,-0.013021676,0.16280961,0.19319351,-0.039703988,0.08194934,0.08192021,-0.10129239,-0.37787023,-0.02943262,-0.04297098,-0.3649519,0.38187924,0.1280286,-0.14505519,-0.11923471,-0.007335096,-0.20553496,-0.3759917,0.060396068,0.036107305,0.13324444,-0.048662968,0.0710139,-0.04449076,-0.077034004,0.13558823,0.043296315,0.105537206,0.3951905,-0.2719678,0.05758554,-0.041051414,0.091125816,0.17404427,0.17101967,-0.18884973,-0.13941294,-0.16897877,0.2914966,-0.08676274,0.18122151,0.10459579,0.29847765,-0.18534127,-0.3265408,0.059003137,0.432423,0.12916939,0.057456817,-0.3191877,-0.116489545,0.02735066,-0.40846747,0.5912123,-0.1507881,-0.20356153,0.0012273154,0.074533485,-0.15096965,0.32822114,-0.1127303,0.24947882,-0.06150666,0.22102526,-0.11801955,0.07578994,0.008851349,0.30582127,0.056016337,0.19375227,0.08121133,0.19008757,0.19238639,-0.08700943,0.25399745,-0.104529925,-0.14103137,0.029392729,-0.095979534,-0.17563067,-0.1282244,0.12630771,0.1924836,0.3392821,-0.28704792,-0.390822,0.017957596,0.06234301,0.20742239,-0.21309158,0.011674733,-0.22176558,-0.1084442,0.0752627,0.12299167,-0.106681176,0.12899858,0.40719643
yield,-0.44869778,0.012766171,-0.21319818,0.46596065,0.509333,0.041133147,0.21364205,0.23198418,-0.57536757,-0.36864167,0.07309342,-0.43885404,-0.26064837,0.15291795,0.2299941,-0.34362978,-0.07833238,0.12715606,-0.009793815,0.017710157,0.21895659,-0.584995,0.20470087,0.099399224,-0.037287205,-0.5427373,-0.027958823,-0.06492629,-0.2112336,-0.19113019,0.5983641,-0.40017423,0.34248188,-0.23980047,-0.19417933,0.26136386,0.3108968,0.07810359,-0.122704856,0.012486186,0.044692345,-0.49828625,-0.03528801,0.26149434,-0.20562278,-0.44958153,-0.08083004,-0.11470444,0.19694959,0.038574364,0.053163677,-0.0457259,0.13729881,-0.06846522,-0.42070058,0.47510904,0.10086898,-0.2438276,-0.5562696,0.05323117,0.04797352,0.35592568,0.28839037,0.08560922,-0.14165774,0.4883057,0.16583507,0.17549434,-0.15412748,0.27771512,0.10888172,0.29475093,0.039831582,0.5394871,0.6983975,0.16543873,0.0047888723,-0.17590654,-0.39468828,-0.22236006,-0.3822228,-0.3325603,-0.38400534,-0.1126772,-0.022255614,0.21235697,-0.0422199,-0.6774594,0.18282144,-0.3512206,0.23707476,-0.18836729,0.053537387,0.27338865,0.25948647,0.06672126,0.30085042,-0.39345843,-0.45072448,0.013749303
china,0.13255833,0.033181075,0.2866719,-0.24521436,0.06345513,0.031886667,0.15708928,0.6030702,-0.22249441,0.020790232,-0.004102166,-0.20996559,0.030686101,0.09920848,-0.48883554,0.030075397,-0.113576695,0.22525972,0.13174622,-0.045528498,0.28576657,-0.43009496,0.3099044,-0.2838959,0.18133,0.24605885,-0.25082636,-0.04029146,-0.31782612,-0.17610593,0.6160467,-0.077931516,0.27600387,-0.23205078,0.23465972,-0.25019312,-0.23023449,-0.72335666,-0.008098811,-0.27609387,0.18957414,-0.21435519,-0.065764435,-0.07000834,-0.029418694,-0.18847324,-0.14861038,-0.0032507775,0.0029094121,0.045999233,0.3476129,-0.46552643,-0.40959716,0.09680463,0.22725716,0.25465044,0.32271287,0.22163503,-0.54938614,-0.09950284,-0.31476858,-0.070721276,-0.19736035,0.088457145,-0.1403094,-0.09077223,0.39161888,0.18733926,-0.1250686,0.19103213,-0.020205129,-0.18384013,0.10335716,0.124632575,-0.12642784,0.061647497,0.16669945,0.16845872,-0.25182587,0.48753205,-0.46947962,0.020622855,0.24365121,0.46860504,-0.50256145,0.15067147,0.038279727,0.05931928,-0.22592801,-0.35109708,0.30531725,0.32572007,0.0023813653,-0.11830549,0.20603101,0.0774513,0.25926274,0.044281103,-0.18062966,0.050762024
return,-0.24943383,-0.061822414,0.29258123,-0.018010063,0.30014098,-0.1548831,0.36555046,0.29834387,0.11382299,-0.9975482,0.17858651,-0.64535,-0.2720177,-0.11182055,0.08049063,-0.042176712,0.061794836,-0.23739767,0.36778483,0.053576294,0.35699305,0.0049134023,0.065724425,0.06991948,0.31099254,-0.21775335,-0.034384597,0.21465407,0.10265536,-0.34891787,0.08017322,-0.062304117,0.3938537,-0.1447024,-0.018440738,0.4064826,0.58744633,-0.4678809,-0.35615185,0.18814617,0.5391388,-0.5169747,0.050497044,-0.15580234,-0.15386435,-0.5702871,-0.23560494,-0.15415332,0.2992343,-0.19296888,0.2549049,-0.20386486,0.018238906,0.116516836,-0.4130388,0.32239372,0.27350566,-0.29854345,0.1641311,0.21934156,-0.1207024,0.11100006,0.23945417,0.22621143,-0.019708328,0.3455932,-0.084826164,0.3449881,0.09184298,0.42084673,0.022295045,0.28325224,0.17805347,0.18355854,0.5636749,-0.1482142,-0.0051352093,-0.47522867,-0.15426719,0.20569946,-0.21654111,-0.0060511474,-0.09925051,-0.09508349,-0.18065287,0.15396203,-0.08493736,-0.3975585,0.042111587,-0.41273615,0.16147257,-0.12865986,-0.24488045,0.09453732,0.1111304,0.08593333,0.08713319,0.06251954,-0.1573039,0.2791412
economic,-0.031534407,0.12832604,0.10084136,-0.49207798,0.019230224,-0.11260155,0.24816246,0.041078273,0.15115851,-0.2645094,-0.37423578,-0.14049779,-0.13828947,0.13707244,-0.001547395,0.053805918,-0.064313754,0.10738472,-0.11805917,-0.5927546,0.37811756,0.13671751,0.63681453,-0.07630226,0.04437335,0.19947372,-0.21838938,0.020816201,-0.16302836,0.18907833,0.51521164,-0.15591998,0.23147048,-0.07818292,0.0067813154,-0.36750934,0.038235676,-0.2254795,-0.15090652,0.121551596,0.043086298,0.10871449,0.20322609,-0.24045216,-0.014587231,-0.21134086,-0.09522332,-0.2535462,0.491312,0.20638515,0.31167293,-0.45002624,0.118971765,0.22617668,-0.018578945,0.2626655,0.10671857,-0.09958856,0.1527511,0.21966606,0.07449657,-0.025334133,-0.052236166,0.079761654,-0.0052477843,-0.12898691,0.087110564,0.19086294,-0.13488714,0.55003756,-0.19854887,0.13234116,0.06033453,-0.0084918365,0.1464499,-0.2109729,-0.011453827,0.21914381,-0.06388698,0.09111555,-0.41374293,0.034715585,-0.17116834,0.26620504,-0.11836682,-0.1328499,-0.13685323,0.026163148,-0.0808443,-0.16957468,0.13684613,0.07116093,0.010608107,-0.3953037,0.10924567,0.14756498,0.4181522,0.1308742,0.27599382,0.044600718
policy,-0.47230577,0.24040338,0.060248416,-0.38637963,-0.13989678,-0.109189056,0.27705157,-0.0142186405,-0.15015702,-0.18608242,-0.0012098041,-0.214366,-0.06767942,0.11955249,-0.045974705,-0.28185838,-0.2565383,0.05493693,-0.18643172,-0.5481542,0.083430216,0.029535474,0.561425,0.16767074,-0.29879832,-0.17225863,-0.03834202,-0.26457492,-0.25417063,0.05366106,0.85361266,-0.0328538,0.5022072,0.1541203,-0.0033175047,-0.17405243,0.028840324,-0.55291975,-0.15371025,-0.07809254,-0.07559203,-0.41272783,0.20937257,-0.12084603,0.13712527,-0.079657994,0.11460213,-0.036660295,0.18010275,0.11252788,0.2759181,-0.06450684,-0.0031927254,0.29233798,0.18115312,0.3202259,0.3494507,0.11988984,-0.3436232,0.34074095,0.2716235,-0.013851835,-0.11624787,-0.021530874,0.015138709,-0.38742206,0.082815275,-0.023301436,-0.120787,0.5516446,-0.22480792,-0.08841725,0.029981557,0.29392916,0.25998235,0.25707355,-0.0018123902,0.15851705,-0.19507532,0.07332872,0.017607775,-0.1799647,-0.20070657,0.34097075,0.026874831,0.035902675,-0.18751572,-0.0031147695,-0.0591211,-0.048249714,0.28587097,-0.12055171,0.05984798,-0.018512053,0.23333542,-0.22024877,0.39553165,-0.2457858,0.1332775,-0.22197379
services,0.21215883,0.3762432,0.2621806,0.21235996,0.11828691,0.08296382,-0.044711042,0.030828072,-0.022740116,0.27419668,-0.59266585,-0.26105475,-0.04612233,0.25429174,-0.26971355,-0.031088466,0.34666637,-0.059720606,-0.16397801,-0.44026563,0.048963543,0.2795157,0.17935163,-0.42657578,-0.07168166,0.14529169,-0.45725673,0.23207578,-0.177159,0.3098902,0.501197,-0.13280578,-0.06370312,-0.0073476504,0.086358555,-0.05549541,0.09761195,-0.1915588,-0.09866266,-0.48747656,-0.24839886,-0.12920809,0.12986119,-0.16920905,-0.10522851,0.008576888,-0.3640681,-0.13464993,0.5418573,0.030309781,0.24207933,-0.5236332,-0.092955396,0.18681589,-0.22572286,0.2445686,-0.14466435,-0.0071693077,-0.4010424,0.07808929,0.053044632,0.08599885,-0.23010792,0.44796005,0.039354365,0.11107561,-0.2062019,0.2780654,-0.17113739,0.026119359,-0.26672673,-0.17961632,0.087324485,-0.11312047,0.19990818,-0.12232533,-0.12142869,0.2518647,0.07267632,-0.045790136,-0.0007820577,0.0152166365,-0.0057717417,0.34922212,-0.1299455,0.21779925,0.28145835,0.19901545,0.34070513,0.1438585,-0.04141295,-0.11103984,-0.042216606,-0.5326437,0.2645554,0.03558435,-0.53916216,0.21197824,0.5108072,0.025439683
expect,-0.36394402,-0.042886704,0.18756017,-0.11725265,0.05486371,-0.15825458,0.3485734,0.3071254,-0.021552121,-0.43946645,-0.002428952,-0.20627983,-0.19157687,-0.1670271,0.0106911985,-0.11837485,-0.085486345,-0.17283866,0.108263984,-0.43906656,0.24734199,-0.0004959512,0.53267616,0.19650795,-0.20752953,-0.07107383,-0.092584915,-0.11194572,-0.093465485,0.16476978,0.54015166,-0.12978908,0.45467582,-0.012917897,-0.034875207,0.088534646,0.08924478,-0.5093293,-0.33550656,-0.18188871,0.091944315,-0.29810384,0.15354179,0.020187689,0.05172368,-0.095713675,0.01906172,-0.13287386,0.21352379,0.12041414,0.13499026,-0.041420892,-0.0051688715,0.11310261,-0.15623587,0.1429537,0.19342215,-0.09338393,-0.12862237,0.25388423,0.15366839,-0.0012226612,0.0013624084,-0.0072140386,-0.2223017,-0.26599413,0.13787049,0.24736038,-0.037260853,0.44999686,-0.06725185,0.14120919,-0.17059031,0.25706127,0.23300922,0.035362076,0.054325562,0.0319145,-0.19010103,0.27647877,0.041676458,0.01570531,-0.01851222,0.2758591,-0.31241176,0.18146712,-0.099608906,0.060106337,-0.24242465,-0.21735138,0.34370014,-0.25893673,-0.18792808,-0.07469914,0.29208225,-0.07846923,0.0633724,-0.23197897,0.33921877,-0.024502007
jan,0.12805322,0.40240476,0.37522173,0.12683024,0.46664122,0.06809568,0.5034745,0.22284387,-0.4356114,0.18111466,-0.21069814,-1.2340009,0.09400825,-0.025785374,-0.5300544,-0.39665613,0.37552884,-0.42381057,-0.051806983,-0.17117812,0.47445002,0.26065028,0.49367642,-0.10418795,-0.05642858,-0.31885266,-0.4321562,-0.14527787,-0.65489733,-0.22554067,0.69012386,-0.37906635,0.26193166,-0.19168036,-0.513758,0.059114844,-0.06345898,-0.19521564,-0.28876233,-0.67795295,-0.39166355,-0.66775024,-0.11383125,-0.32567436,-0.6373469,-0.16966261,-0.47514307,-0.4037231,-0.041359324,0.025919242,0.24174924,-0.75392133,0.3659529,-0.15134497,0.20939787,-0.089862786,0.24893777,-0.085865386,-0.6926934,0.61223215,0.048031643,-0.620449,0.466457,0.036969297,-0.22489369,0.28882417,-0.32246295,0.7319972,-0.35872385,0.13600518,-0.41772652,0.1445891,0.38421947,-0.33483845,0.7917484,-0.19348735,-0.35744736,-0.2613203,-0.089549325,-0.4465282,-0.2395569,-0.18206483,-0.45655137,0.5655552,-0.14081837,-0.17064224,0.3027909,0.04890205,0.657028,-0.26562944,0.120835446,0.15148033,-0.25260407,-0.3132185,0.6845884,0.5750462,-0.036627967,0.16263539,-0.16894576,-0.36517674
energy,0.4687675,0.29059005,0.19235444,0.2607749,0.20123827,-0.2162025,0.34377646,0.3635268,-0.118403725,-0.1828208,-0.096577875,-0.31702083,0.16240251,0.19317792,-0.14863817,0.3417523,0.32515374,-0.1919558,0.14072971,-0.47878098,0.4754311,-0.15036738,0.22066821,-0.032880474,0.074566394,-0.03149225,-0.31006405,0.101468004,-0.08675987,0.20672266,0.50170434,-0.11405091,0.09328082,-0.2344285,0.09922445,0.103692554,0.13155979,-0.1818178,-0.3605434,-0.37311807,-0.23559879,-0.16471322,-0.036717907,-0.059464876,-0.105974734,0.017619811,-0.39836118,-0.4100238,0.3718163,0.2493599,0.06226294,-0.24770744,-0.11796035,0.07962024,-0.10344891,0.048512187,-0.17411391,0.03592768,-0.31886747,0.2046993,0.1266005,-0.0756002,-0.17372689,0.28725696,-0.32914758,-0.042782705,-0.038072273,0.35143906,0.0012110029,0.22241534,-0.10986776,-0.19638856,0.15171719,0.16880915,0.34969896,-0.055473212,0.07181435,0.16587478,-0.001584889,0.23515652,-0.09239321,0.20074068,0.066186674,0.32396567,-0.20828953,0.32158473,0.21090528,-0.009819286,0.29443565,-0.28283888,0.097251706,0.1289943,-0.25621304,-0.16360235,0.3225664,0.16316469,-0.48499537,-0.15962976,0.36916342,0.2584845
performance,-0.37674743,-0.08224769,0.0074320976,-0.052419655,0.33336735,-0.21459083,0.12539797,-0.043190178,-0.07276836,-0.5543503,-0.09247799,-0.15648618,-0.21679437,0.5127502,0.03281356,-0.34636542,0.30464306,-0.22992906,0.008790576,-0.29384145,0.27883098,0.1906318,0.17625766,-0.05126134,0.39312607,-0.13822629,-0.034723092,0.61916214,0.010289679,0.005536611,0.19805108,-0.15287445,-0.009904333,-0.25184983,0.14801586,0.13468902,0.35015935,-0.25259435,0.054203775,-0.004071589,0.23608486,-0.18049729,0.15755312,-0.0706062,-0.039674073,-0.34372157,-0.30055454,0.12982602,0.6051299,0.014450879,0.12774615,-0.17537542,-0.058647845,0.14696811,-0.6915322,0.2227927,0.0054288013,-0.26415002,0.16741534,-0.057107523,-0.10058002,0.3604071,-0.058052104,0.5320769,0.031822644,0.4270395,-0.117666036,0.41177082,-0.19315682,0.6227301,-0.08210702,0.55516857,-0.012828054,0.096295685,0.5831221,-0.38745463,-0.25967523,-0.13798892,-0.12421566,-0.04283501,-0.30654156,0.011474606,-0.34616894,0.16586336,0.0817566,0.28240618,-0.3960821,-0.4371644,0.15816715,-0.11763171,0.23272645,-0.15992579,0.06149245,-0.20573778,0.13658194,0.062449582,0.21017481,-0.1124025,-0.15586846,0.27105588
jun,-0.18050902,0.33625206,0.57715064,-0.028246526,0.056787133,0.027565513,0.17540127,0.38656253,-0.5429714,0.2555712,-0.7097011,-0.9649347,0.14675003,-0.48275977,-0.19121706,-0.22564118,-0.048708744,-0.6092317,0.3719925,-0.48082912,0.6364525,-0.31199166,0.3707383,-0.46392655,0.0022210681,0.04370316,-0.39375085,-0.3003012,-0.42184326,-0.35023898,0.6617117,0.1215877,0.4231504,-0.11619057,-0.15338424,0.075270444,-0.0065688733,-0.2495021,-0.70192957,-0.20066617,-0.093518555,-0.6135711,0.13608263,0.018444316,-0.7256728,-0.6036706,-0.25960654,-0.2454356,-0.16088149,-0.021797635,0.32179666,-0.53526217,0.06342744,0.58704245,-0.3095164,-0.024399122,0.21387076,0.038527306,-0.91459614,0.46144402,0.54407245,-0.20845085,0.18218131,0.11279009,-0.06550282,0.28364342,-0.052560095,0.49700776,-0.27632046,-0.19911274,-0.46137458,0.07410385,0.4085972,-0.08213761,0.6921718,0.034076974,0.20854603,0.01216287,-0.05304474,0.09836146,-0.3673016,-0.20942599,-0.38327497,0.3709196,-0.7410014,-0.11814533,0.69254273,0.18488252,0.54056776,-0.14689109,0.06000763,0.4867058,-0.2803198,0.07567586,0.7980355,0.50128424,-0.61531407,-0.010806461,0.30223513,-0.34227535
funds,-0.4818713,-0.0024756435,0.1946026,0.22864841,-0.01501865,-0.13042401,-0.113933004,-0.31829536,-0.039100993,-0.25956705,-0.13270205,-0.30039328,0.021609956,0.22606704,-0.056216795,-0.4186024,0.08193401,-0.43972954,0.17304498,-0.44051212,-0.012313457,0.4284692,0.38622832,-0.14206256,0.025224755,-0.13081653,-0.28623718,0.5829473,0.030241203,0.27717343,0.50945574,-0.12996632,0.18493941,-0.007912984,0.11018475,0.44812337,0.42802247,-0.31414402,-0.04110119,-0.054956753,0.16575828,-0.5450226,0.24535328,0.08357725,-0.03693696,-0.17447545,-0.19668235,0.2988921,0.45410606,-0.17107198,0.2972486,0.03636577,0.18276621,0.05159127,-0.76727265,0.16695856,0.037630823,0.17223766,-0.18775505,0.30306894,0.33661157,0.18063195,-0.053966515,0.32924426,0.31004605,0.29710978,0.031468,0.5470234,-0.136198,0.4684822,-0.0840968,0.6820889,0.039140407,0.3745345,0.71380657,0.14165203,-0.26230887,-0.29689258,0.19058931,-0.23146725,0.27343655,-0.20573132,-0.31769145,0.04396125,0.17046459,0.4366811,-0.38483387,-0.55066115,0.3772538,0.40969008,0.26383987,-0.17172043,-0.29017404,-0.38865545,0.1481257,-0.5374675,-0.53547305,-0.12593453,0.10454816,-0.13523819
credit,-0.14820364,0.06871212,-0.1725352,0.29861826,0.26303297,-0.004669471,-0.21674886,0.22774811,-0.44508535,-0.082601495,-0.060610242,-0.22572671,-0.28860986,0.22265115,0.21351452,-0.035160832,-0.35651988,-0.009424141,-0.021006288,-0.17535987,0.040012103,-0.4430269,0.24028336,-0.17002197,-0.04838186,-0.16827406,-0.101132,0.052034598,-0.046703696,-0.06772446,0.54506636,-0.38140306,0.17694373,-0.096562624,0.062089164,0.09252985,0.10849928,0.118655175,-0.0591761,-0.0745831,0.09087444,-0.3707492,0.078193955,0.071999356,0.034475747,-0.4109978,-0.21915713,0.094034545,0.11679135,0.0756481,0.027170494,-0.39288262,0.018757163,-0.0070563033,-0.35550913,0.41626477,-0.19397536,-0.1204795,-0.44605866,0.1273738,0.030193578,0.19434997,0.26752168,0.061705664,0.006040043,0.4898065,0.1550997,0.28495172,-0.22408682,0.09749519,0.0500735,0.20023458,0.4044388,0.27698398,0.35871786,0.07451264,0.09209707,-0.08151183,-0.07401069,-0.22846825,-0.28196758,-0.3281298,-0.40179163,0.054537255,0.27065566,0.03538411,0.08062388,-0.40474278,0.29276985,0.19397186,0.07449273,0.07376182,0.08948798,0.017744716,0.03842375,0.18224071,0.26013047,-0.10815972,-0.1773005,-0.03178304
time,-0.2559978,-0.014618815,0.13608842,-0.11922472,0.10877022,0.14314024,0.27462462,0.06853827,-0.0030472688,-0.15137422,0.06080102,-0.23266755,-0.22312887,0.019329982,-0.2785393,-0.11952079,-0.0105466815,-0.103920475,0.018132327,-0.07281544,0.23994169,0.008983207,0.1863699,0.08713736,0.13760972,-0.21850148,0.22119592,-0.013661854,-0.24023606,-0.06301067,0.36251873,-0.076111235,0.23338939,-0.15005656,0.10522649,0.06220047,0.14649376,-0.40027416,-0.20038244,-0.12506177,0.09987012,-0.37141392,0.20334776,-0.08370155,-0.0077770217,-0.28687713,-0.19385485,-0.063203834,0.12237276,-0.07899935,0.1436298,-0.25593686,-0.015273359,0.067415774,0.04913058,0.40241376,0.042367958,-0.10114927,-0.21053384,0.2241316,-0.06614082,-0.008759486,0.1522103,0.25363258,0.019320277,-0.030576054,0.091381826,0.26831928,0.010548383,0.27984002,-0.070050366,-0.072351426,-0.085746154,0.061215874,0.18506142,-0.1757153,0.08453887,-0.12642543,-0.0072018225,0.15777607,-0.10340105,-0.32884523,-0.096367426,0.081761934,-0.31261495,0.15569705,-0.13838944,-0.1984633,0.077937305,-0.16654423,0.25129396,-0.22310315,0.010245971,-0.23803337,0.027122615,0.11195394,0.11420123,-0.1650264,0.20153469,0.12734452
usd,-0.24577112,0.18107222,0.34184936,-0.19585256,-0.023664175,-0.4996746,0.07878792,0.5175725,-0.15250784,-0.37019858,0.017643515,-0.70079714,0.11891707,0.3118471,-0.14580679,-0.5082839,-0.56544554,-0.7281019,0.23264323,-0.4362703,0.5620889,0.61477685,0.32186875,-0.0014001268,-0.018960893,-0.38427833,0.019260814,-0.009030053,-0.24061334,-0.13087869,-0.106734015,-0.17066035,0.60055023,-0.0017562108,-0.46960026,0.60486436,0.084745154,0.06491462,-0.33486953,-0.2741192,0.52126604,-0.35902292,0.22583438,0.06877473,-0.1201681,-0.26261938,-0.37499374,-0.32450798,-0.23341675,-0.051811084,-0.44036475,-0.05282431,0.2081832,0.08936542,0.0019217683,-0.44280702,0.23230132,0.057645123,-0.40593398,-0.17280719,0.18330549,0.15469009,-0.20172635,-0.36147204,-0.16700791,0.44973412,-0.058582254,0.45267105,-0.28504822,0.08186338,-0.5003884,0.52701974,0.2789127,-0.0707684,0.9521251,0.48441193,0.12542517,-0.5760011,-0.6249576,-0.0037827285,0.1267375,-0.14340949,-0.47132853,0.47530887,0.3752285,-0.04618565,-0.18139006,-0.21133363,0.31421804,-0.012070033,-0.031591557,0.042378176,-0.22544748,0.10679037,0.5504115,0.23461293,-0.1881617,-0.1858786,-0.4825576,0.25724506
management,0.07540937,-0.092788264,0.4856999,-0.0674701,0.13280272,-0.36749527,-0.136315,0.010185514,0.09505194,-0.36415046,-0.20505428,-0.48620203,-0.6724857,0.4540212,-0.2364922,-0.04628873,-0.21940005,-0.22535251,-0.408494,-0.078887515,-0.05297177,0.43038386,0.052034356,-0.50556463,-0.040022675,0.2541976,-0.37152827,0.24304369,0.042771522,0.32402125,0.4708607,-0.14835206,-0.013035296,-0.07683727,0.19028538,0.28661528,0.113540545,-0.21644035,0.011733885,-0.38429043,0.18902494,-0.14817606,0.16216315,-0.13290007,0.34959018,-0.19380881,-0.24014287,0.28000244,0.5326548,0.019331569,0.485893,-0.78379685,0.1577168,0.118280955,-0.56652856,0.67645246,-0.011346195,0.010889222,0.06824452,-0.22220592,-0.1261077,0.33093774,-0.31005988,-0.040406335,-0.06872677,0.45444936,-0.0044164453,0.32872316,-0.14276755,0.20883287,0.04858365,-0.015803201,0.5667796,0.23575203,0.24924625,0.3601914,0.14606996,-0.25678146,-0.14827819,-0.19780697,-0.22788364,0.119583935,-0.31337383,0.0062349606,0.23177265,0.1312717,0.07322595,-0.15743922,0.037603986,0.33922958,-0.034821548,-0.05720646,-0.018486194,-0.3719782,-0.1098241,-0.021576721,0.021759912,0.43846813,0.074927896,-0.26121247
bloomberg,-0.022785988,-0.22525005,0.052487988,0.15862823,0.41012114,-0.3705009,0.41205198,0.32048,0.00086317444,-0.3602036,0.0054335305,-0.87107176,-0.28234014,0.014965929,-0.1490728,0.014393475,0.0824135,-0.08164458,-0.20500368,0.26022434,0.18036197,-0.23310214,0.13409808,0.020305376,0.05916825,-0.3512603,-0.17228317,0.07985277,-0.105399445,-0.0492709,0.49056533,-0.23180485,0.4443315,-0.22079632,-0.24858591,0.18071993,0.23187461,-0.16239162,0.021384705,-0.25782192,0.031630993,-0.61020046,0.15541641,-0.17863631,-0.27259296,-0.28732604,-0.032201026,-0.08483644,0.29640436,0.0077971867,0.47759947,-0.49598873,0.36539894,-0.19680728,-0.2893598,0.37704802,0.20888585,-0.09498034,0.019523814,0.16804816,0.16431698,-0.06412797,0.42765355,-0.28923228,-0.15003589,0.44840747,0.31214216,0.61099887,-0.39107996,0.22799994,0.197693,0.123512425,0.41240093,0.3907775,0.6200401,0.21349181,-0.12463107,-0.19362557,0.02717405,-0.20774499,-0.4681475,0.08031681,-0.27455857,-0.05573372,-0.16692361,-0.13722521,0.27527526,-0.4048174,0.011072661,-0.41509688,0.09040558,-0.025460754,0.07178319,0.053044498,0.19478379,0.22459172,0.33516374,0.1878886,-0.24193472,-0.47503614
average,-0.10839853,-0.10617641,-0.11134452,0.12572528,0.36221653,0.22307578,0.72630525,0.22117864,-0.20560062,-0.18662599,0.1444217,-0.61124724,-0.0005344805,-0.19506438,-0.19761568,-0.14487167,0.42816678,0.060721725,0.04466734,0.09604287,0.25846788,-0.22137219,0.14337383,-0.24730356,0.23944217,-0.44715357,0.12569262,-0.012857547,-0.26783118,-0.13445069,0.42716363,-0.19513042,0.408784,-0.44303188,-0.1041331,0.110761486,0.28559977,-0.49199295,-0.2741179,-0.19526637,-0.14843959,-0.594575,0.21205533,0.06714299,-0.23240319,-0.37933958,-0.15845904,-0.18840478,0.15183839,0.010374393,0.19285114,-0.058141623,0.17509681,0.102898486,-0.3297845,0.32021138,0.20166087,-0.1273727,-0.34420758,0.26278612,0.013034267,-0.023964293,0.2744463,0.31040585,-0.13932216,0.3701383,-0.020435018,0.33279127,-0.12688822,0.20718005,-0.050310086,0.024096562,-0.015489559,0.036066074,0.55062747,-0.33863991,-0.13585585,0.01472135,-0.20752981,0.008623808,-0.27548537,-0.11089169,-0.35055655,0.09358602,-0.45996916,0.32092422,0.10270957,-0.22238508,0.11987851,-0.6054477,0.23223886,-0.16264607,0.08364198,-0.046687294,0.24570741,0.12911992,0.14524378,-0.20654401,-0.01243594,-0.11978708
bonds,-0.29398087,0.041430455,0.044322956,0.5418597,0.39590845,-0.015097766,0.15181164,0.29748383,-0.21282765,-0.2914999,0.36803737,-0.4656083,-0.37394536,0.1415857,0.2588368,-0.3122412,-0.23697339,0.015097376,-0.030577932,0.2564675,0.2742175,-0.5041797,-0.025441049,0.020517016,0.11324183,-0.5851081,0.17831868,-0.0567657,0.04873619,-0.1424555,0.56980693,-0.30837047,0.29009545,-0.09447516,-0.10483215,0.4469463,0.25342426,-0.038467746,-0.297807,-0.07996021,0.15561052,-0.44427133,0.108197145,-0.054762598,-0.14809076,-0.350412,-0.11772726,-0.116023235,0.25974,0.004349364,0.24268866,-0.15483135,-0.1071065,-0.36194378,-0.20695637,0.6586693,-0.20164962,-0.077215694,-0.5251744,0.15919635,-0.17778197,0.17884128,0.32556233,0.22116601,-0.20805039,0.16778341,0.08169537,0.3552876,-0.14013033,0.31538424,0.211164,-0.02908478,0.11002026,0.2997777,0.26127917,0.016646842,0.5162115,-0.37567124,-0.14315705,0.09939701,-0.015474333,-0.49245894,0.00319285,0.08082252,-0.12714176,0.43729982,0.00713203,-0.67924774,0.1818028,-0.21987833,0.43564937,-0.5799067,-0.15089187,0.09666355,-0.112818435,0.3781697,0.16679232,-0.29700926,-0.35770836,0.24708383
income,0.07146408,0.30677918,0.31148905,-0.030489234,0.4956875,-0.14692241,-0.11717192,0.15040475,-0.58661497,-0.56499326,-0.07954058,-0.6821672,-0.3939185,0.2134878,0.10979093,-0.30137226,0.21813597,0.0693999,0.02559102,-0.28522563,0.25805202,-0.28609863,0.49372214,-0.24994569,-0.27646554,0.16454798,-0.5443057,0.14777039,0.15065943,-0.0026245173,0.38387632,-0.41597077,0.41544664,-0.11455965,0.102557935,0.29484016,0.18512367,0.14572132,-0.36035913,-0.07146797,-0.41432098,0.04748316,-0.0026912482,0.046445478,-0.16626681,-0.10329793,0.2150921,-0.08899668,0.25237912,0.21410456,0.18668295,-0.20580113,0.4038747,0.23399162,-0.4469653,-0.04706818,-0.19117554,-0.43463463,-0.17883685,-0.30367586,-0.24105553,0.3015226,-0.105574094,0.60182595,-0.29427144,0.23339468,0.17067952,0.16201481,-0.104912765,0.67379683,0.01798529,0.076459676,0.2258179,0.5198121,0.42045188,0.20751457,0.11840335,0.025609616,-0.38928467,-0.13951796,-0.03890651,-0.0042263586,-0.24222465,-0.15573624,0.0754715,0.43123606,0.2002035,-0.2605854,0.15526725,-0.029499996,0.14798023,-0.23603553,-0.23029323,-0.17928468,0.31868112,0.15457778,-0.46163195,0.25936663,0.056190588,-0.06936875
forecasts,-0.4804131,-0.045320075,0.10332819,-0.57054543,-0.029236132,-0.4401343,0.32249072,-0.008179342,0.19541687,-0.3264539,-0.44326368,-0.38686627,-0.39318267,0.44756362,-0.15347885,-0.45186394,-0.32306397,-0.26172757,-0.103698105,-0.24984162,0.7848538,0.43408993,0.66958255,-0.03309796,0.18679965,0.16875389,-0.10668219,-0.028707093,-0.44154173,0.065727726,0.57157487,-0.12940468,0.2584737,-0.030605717,-0.24307577,-0.3895529,0.13628347,-0.13228148,0.026318584,-0.09961481,0.011989188,0.14761782,0.1268001,-0.030884556,-0.4285598,-0.31106502,-0.03193417,-0.42788363,0.31031087,0.26713717,0.045832284,-0.52756876,0.46332324,0.14659311,-0.0029520409,0.018812433,0.53986007,-0.24218988,-0.05807089,-0.059446126,0.0062166317,0.12794977,-0.051508956,-0.47263303,-0.011459866,0.04563879,-0.28245044,0.4197164,-0.31905818,0.48777622,-0.4461838,0.55450463,0.3046405,-0.2185938,0.6458911,-0.20939407,-0.39445588,0.0053326297,-0.3286144,-0.1923388,-0.790186,0.17633937,-0.6363388,0.2313047,0.24529365,-0.70004374,-0.14252204,0.0312743,-0.03492197,-0.6411338,0.07533662,0.08196763,0.37629294,-0.21974207,0.42339134,0.28740674,0.918037,0.09265846,-0.17468847,-0.2937692
term,-0.3131617,0.2326904,-0.09291669,-0.11637044,0.24039467,0.12709554,0.39144444,0.024787301,-0.29104373,-0.18210486,0.24490923,-0.1924413,-0.025323737,0.2390791,-0.008396979,-0.3408579,0.0027591109,-0.091614485,-0.12357086,-0.2691965,0.33553815,-0.023392884,-0.012409436,-0.0755822,0.14771307,-0.38665482,0.29577357,-0.093045324,-0.22196993,-0.074731626,0.37332165,-0.18632625,0.15544556,-0.24703845,-0.12525618,0.08332648,0.08147702,-0.29856068,-0.28481925,-0.2123094,0.098068334,-0.22759856,0.2996982,0.15929444,0.03415668,-0.35928395,-0.28878018,-0.22341017,0.12313829,0.19015315,-0.015628446,-0.02551503,-0.11138915,0.07701726,-0.07742495,0.31709677,0.20580272,-0.10705131,-0.36014658,0.21315408,-0.021999372,0.07341467,-0.04041371,0.049670763,-0.15219995,0.027456822,-0.2237957,0.03386354,0.0034919379,0.20706138,-0.043220956,0.05461124,-0.14515,-0.03697926,0.3580212,-0.26407066,0.3029028,0.018760653,-0.3785123,0.0700723,-0.104768574,-0.14199688,-0.38621053,0.2320811,-0.119187474,0.30994055,-0.353998,-0.06661235,0.11096808,-0.19808306,0.28346038,-0.19862424,0.10569516,-0.121312454,-0.026201911,0.16761097,0.35526344,-0.39110878,-0.012077271,0.20600305
december,-0.038887545,-0.24003735,-0.090153925,-0.034090307,0.14951874,-0.11979777,0.40855932,0.36424705,0.17159598,-0.33602574,-0.019669548,-0.5833116,-0.12618114,-0.0051510953,-0.3631551,0.064832896,0.22939023,0.069939755,0.12225198,0.25146613,0.2830499,-0.13337672,0.2189656,-0.18069488,0.254835,-0.22004512,-0.10395214,0.23625796,-0.12197918,-0.16293207,0.5677645,-0.17511638,0.4011715,-0.06243362,0.054086223,-0.012407608,0.33707234,-0.5103167,0.124913216,-0.12483629,0.33040783,-0.66164744,0.12987699,-0.17028256,-0.23991284,-0.21048893,-0.12575886,-0.0005002614,0.27981052,-0.13352653,0.29165122,-0.36056438,0.060886584,0.09565147,-0.3063136,0.43073952,0.44987983,-0.015865868,-0.07203121,0.16183808,0.03504278,0.010643984,0.18819828,-0.09818713,0.05194263,0.35856274,0.28073424,0.4345882,-0.15381265,0.19511308,0.09202058,0.0065310947,0.281307,0.28037378,0.5186117,0.15965815,-0.25352538,-0.15144229,-0.031770788,-0.0752885,-0.4058876,0.06949316,-0.117791116,0.09425934,-0.22108191,-0.02001309,0.055746682,-0.40683028,-0.16104451,-0.5910598,0.06659348,0.12426059,0.05727364,-0.08411109,0.16689894,-0.08441856,0.17774326,0.081569,-0.12615517,-0.23877938
price,0.08617183,0.026523197,-0.08784684,0.06245213,0.39148355,-0.077559255,0.45989257,0.23881207,-0.14377521,-0.29734665,0.014192482,-0.34887436,0.026828693,0.20318894,-0.13275486,0.1587422,0.43597832,-0.048092958,0.017407788,-0.32056805,0.44841754,-0.076839276,0.08612496,0.028427653,0.15317938,-0.3624794,0.023361519,-0.023387387,-0.19313322,-0.03984967,0.29845387,-0.14455597,0.13597368,-0.41048515,-0.03867139,0.046474695,0.2232745,-0.31742683,-0.34434658,-0.28123432,-0.073588364,-0.33191255,-0.02888369,0.010920901,-0.15434425,-0.07814325,-0.36689314,-0.3555799,0.3868773,0.19252704,-0.069442354,-0.034596242,0.044434983,0.23774114,-0.123814546,0.15068053,0.08389339,-0.27358755,-0.11498835,0.15986882,-0.005600802,0.11829783,-0.043926284,0.36561736,-0.27165413,0.16295737,-0.15340044,0.24074888,0.082199566,0.2516243,-0.11710296,0.029568862,-0.0127336625,0.08208194,0.6465865,-0.3723647,-0.13194013,0.111745045,-0.12686297,0.043811608,-0.1865738,0.12765633,-0.18774998,0.14360665,-0.041404635,0.31925744,0.09644537,-0.110038236,0.23671056,-0.4727774,0.069612764,0.08157313,0.018349221,0.067471415,0.39557067,0.2706617,-0.08094176,-0.32830727,0.16458082,0.20252441
total,-0.16226447,0.03126523,0.3668924,0.061046243,0.35593233,0.014747428,0.30701232,0.24910712,-0.073477365,-0.7177541,0.04581145,-0.62015754,-0.14557992,-0.23838767,-0.03393937,-0.18525204,0.2409666,-0.20763518,0.50175446,0.09797376,0.21962334,-0.22202334,0.16882563,-0.045253195,0.31444275,-0.17979388,-0.2985587,0.22891822,-0.01644323,-0.4993597,0.03167425,-0.05986071,0.25207534,-0.04660338,-0.06698773,0.18958713,0.29580727,-0.23995611,-0.15345591,0.071755685,0.33821985,-0.3810102,-0.044103403,-0.26833385,-0.3351404,-0.46213293,-0.1826976,-0.24361318,0.26590142,-0.2292783,0.23528217,-0.30693725,-0.0714294,0.020983202,-0.30809274,0.04620129,0.10990581,-0.19038853,-0.05787302,0.19408567,-0.07496704,0.016644618,0.3286752,0.30185792,-0.097409524,0.2806158,0.0056322603,0.46248564,0.05924133,0.42080462,0.060707655,0.20353132,0.20501055,0.17075954,0.5309767,-0.19798566,-0.101239584,-0.40719673,-0.14314887,0.069153436,-0.2935624,-0.1539215,-0.06341128,0.18736918,-0.3142146,-0.03214003,-0.0030889981,-0.2878224,0.11074854,-0.42372382,0.2259517,0.01320596,-0.3184155,-0.0155518195,0.28184816,0.20748983,-0.12186627,0.2541058,-0.100379094,0.16405936
central,-0.21380305,0.32593927,0.042337175,-0.1361143,0.021008724,-0.31918138,-0.0020268932,0.12655053,-0.10719992,-0.097759,0.21046066,-0.19952582,0.0009048246,0.3463725,0.2473901,-0.16586214,-0.3167216,-0.09232593,-0.14918269,-0.3462554,0.10953548,0.12505302,0.5343643,0.5102358,-0.4609553,-0.3026089,-0.098952256,-0.40983945,-0.306847,0.014593321,0.9673316,-0.24911435,0.25192383,0.1851487,-0.20484285,0.2174058,-0.0075999047,-0.45608512,-0.47004688,-0.18169747,-0.07995393,-0.41456246,-0.15127291,-0.10449911,0.22714053,0.4190504,-0.22998424,0.09710111,0.2311996,0.2083957,0.34328893,-0.289351,-0.26269814,-0.2590218,0.44652298,0.31597924,0.29051435,-0.07174373,-0.2847996,0.48326215,0.34784034,-0.33804262,0.12592404,-0.15891816,-0.13522302,-0.48554114,0.09777604,-0.056367714,-0.14951994,0.54289,-0.04671539,-0.10587824,0.14646085,0.37276995,0.35424763,0.30849904,0.103744864,-0.09237872,-0.059845623,0.021213556,0.2313558,-0.14334515,-0.08485577,0.32756868,0.09713537,0.027256725,0.048612814,0.070350654,0.077136256,0.2182711,0.29045293,-0.045292374,-0.12093221,0.12511559,0.08600982,-0.15791059,0.3386273,-0.22064625,0.059442524,-0.35074398
securities,-0.24958356,0.3209015,-0.079339065,0.32176054,0.23875098,0.015096223,-0.3912619,0.0022531787,-0.4126605,0.13516162,-0.2755124,-0.17855762,-0.25337693,0.52718705,0.2851453,-0.29550272,-0.22396468,-0.021855386,-0.1295181,-0.13712625,0.007760832,-0.08873271,0.12347352,-0.3676623,0.10964655,-0.09059742,-0.28103325,-0.20572062,-0.11464674,-0.24769935,0.58159626,-0.19926545,-0.30671945,0.14552991,0.12070476,0.34817144,-0.025670158,-0.08205659,-0.029750807,-0.43115047,0.25545475,-0.13771638,-0.23082277,0.07575383,0.10453922,0.1033578,-0.38515145,0.3512886,0.40677276,0.0055707106,0.42483795,-0.40898553,-0.2715904,0.0666811,-0.32218757,0.521628,-0.16858894,-0.116951294,-0.5832455,-0.11529988,-0.2580414,0.32717723,-0.3534699,0.2604869,0.1736814,0.24259548,-0.25261867,-0.031107143,-0.16816908,0.27716085,0.04923513,0.24360842,0.43232834,0.18677877,0.23713963,-0.059758212,0.14434782,-0.4293897,-0.12707694,-0.18074957,-0.13220122,-0.43508446,-0.04051022,0.16992185,0.35367203,0.13106008,-0.17774205,-0.37024906,0.36591786,0.3777238,0.33873504,-0.026103763,0.08875551,-0.033328604,0.014848081,0.17716445,0.014648575,-0.06644867,-0.23765685,0.0068228217
dec,-0.35329422,0.08478464,0.35998803,-0.110197306,0.26609352,0.153674,0.41983256,0.15973185,-0.57172537,-0.10801951,-0.4487577,-1.0586015,0.032309856,-0.47688818,-0.21825121,-0.33285996,0.19693491,-0.40851614,0.336936,-0.2704946,0.6305698,-0.29987237,0.47688648,-0.31942046,0.092459,-0.26257542,-0.19589923,-0.04367436,-0.39772785,-0.39590308,0.5458547,-0.026417842,0.6255609,-0.29122788,-0.25418347,0.14337318,0.2554019,-0.28644606,-0.4613391,0.005358881,-0.091804765,-0.69093394,0.2452688,0.079237014,-0.7936012,-0.6743753,-0.12162953,-0.27257654,-0.05278627,-0.10935858,0.29465288,-0.3454019,0.35306486,0.3538196,-0.40757793,-0.044198006,0.33742946,-0.054552764,-0.58239424,0.43926987,0.45562226,-0.11639971,0.44125095,0.12929282,-0.017009735,0.46654153,0.110340215,0.55247694,-0.25118878,0.11464691,-0.3468185,0.39189446,0.20454128,0.09349317,0.9334828,-0.13110898,-0.0241761,-0.13432413,-0.1944206,-0.077874064,-0.42385533,-0.18076701,-0.6066164,0.076481864,-0.56858504,-0.10149146,0.47911683,-0.072077714,0.40395623,-0.41091457,0.06912243,0.29918167,-0.23831365,0.13169202,0.62352276,0.30875954,-0.282537,0.046472758,0.27034125,-0.43323642
equities,-0.11322761,-0.044811692,0.12375499,0.10780302,0.3998749,-0.2049466,0.14139603,0.32615584,-0.3066002,-0.60575783,0.36455914,-0.37954727,-0.18128347,0.09507443,0.1216165,-0.004330266,-0.015525485,0.071408816,0.103890315,-0.3476566,0.25887433,-0.48288637,0.26245284,0.01820675,0.052972585,-0.2088802,-0.0018965972,0.32540953,0.05543228,-0.28837532,0.42287582,-0.22499049,0.34355918,-0.16932106,-0.026044754,0.2984279,0.25051692,-0.18124391,-0.32383764,-0.05063479,0.2698666,-0.2620059,-0.16006677,0.04086471,0.17287342,-0.24010374,-0.083577804,0.050326433,0.24794358,0.004466068,0.1923377,-0.19486605,-0.05131369,-0.22516565,-0.1170125,0.2902143,-0.23201732,-0.31877345,-0.030290294,0.0576455,-0.15308361,0.09646038,0.34171852,0.4974756,-0.23074722,0.1866717,0.29152173,0.34307817,-0.1566272,0.611806,0.11699498,0.3001601,-0.027400129,0.51027805,0.28120318,-0.07461444,0.17500363,-0.31034043,-0.23183699,0.25369123,0.008733099,-0.17853744,-0.025076987,0.12275268,-0.29989684,0.37180248,-0.12080158,-0.638404,0.04362052,-0.18960574,0.47184914,-0.2389428,-0.16951746,0.1039355,0.040077567,0.21792713,0.028888201,-0.036642686,-0.06725414,0.22630842
unicredit,0.0037747829,-0.030499486,0.62446797,-0.31111467,0.12419739,-0.5165564,-0.18336852,0.6979403,0.3130633,-0.2105452,-0.7523883,-0.94622797,-0.7017747,-0.2107419,-0.0919253,0.088531405,-0.4091509,-0.4842664,-0.2569305,0.027129447,0.2344608,0.15760422,0.545862,-0.35817143,0.0013817549,0.42242435,-0.46328312,-0.74172664,-0.3013663,-0.067079276,0.49289948,-0.11328218,0.1414719,0.07859128,-0.26964176,0.26189247,-0.42617983,-0.5858048,-0.5477897,-0.63721275,0.1415994,-0.40053877,-0.00070786313,-0.48750424,-0.09436217,0.009891177,-0.3267241,-0.011411788,0.0047733495,0.21291544,0.6021254,-0.9721991,0.4704649,0.022388801,-0.24597579,0.11181717,0.18064728,-0.4201988,-0.17263483,0.5254301,0.29196027,-0.47746798,0.35968032,-0.36278096,-0.12688757,0.046078816,-0.18592715,0.5416379,-0.25474948,0.14940017,-0.18784331,0.08398297,0.5421791,-0.30540207,0.26447207,0.2380078,0.30375114,-0.4892243,0.031105265,-0.03484406,-0.039396707,0.09369378,-0.25814527,0.31302324,-0.41157854,-0.41787136,0.652884,0.22282808,-0.07898813,0.18088533,0.12821078,0.3234976,-0.31190258,-0.08861119,0.6551457,0.91071296,-0.18632099,0.25408515,0.10826281,-0.6776348
fed,-0.53857785,0.06765553,-0.04510165,-0.27582198,-0.20017402,0.08687697,0.38366643,-0.23989211,-0.13797201,-0.003628218,-0.1973187,-0.38230348,-0.042424507,0.004625914,-0.2265595,-0.2586427,0.0028825677,-0.25231725,-0.17427106,-0.5964404,0.21293914,0.48882958,0.6313608,0.22080955,-0.28895557,-0.26692662,0.013962474,-0.09143581,-0.33027905,0.1847712,0.8773191,-0.050090887,0.55028313,0.06948436,-0.087029494,0.027496086,0.25111553,-0.55298007,-0.13615644,-0.18618184,-0.013742779,-0.63715863,0.31285825,-0.060284648,-0.034525115,-0.01694165,-0.10641216,0.13099608,0.25645846,-0.073929,0.2260014,-0.17862791,0.19024384,0.2134957,-0.05459799,0.29196727,0.40123543,0.11900522,-0.16809747,0.6627682,0.5458721,-0.11239691,0.01586709,-0.058555454,0.16541214,-0.17985286,0.14307652,0.32710323,-0.07908979,0.3284055,-0.24272332,0.1393324,-0.0776542,0.30735508,0.45961788,0.14305985,-0.28261572,0.0946957,0.15006608,-0.14046495,0.1873665,-0.2554312,-0.306883,0.059380412,-0.18849131,-0.0013088442,-0.10414282,-0.18772823,0.015312111,0.03904202,0.21222955,0.03239915,-0.043032426,-0.19006915,0.21099861,-0.4236708,-0.083036765,-0.26340958,0.59668547,-0.33644864
current,-0.21578129,0.072709955,0.009837555,-0.31813696,0.10032808,-0.12865691,0.38565463,0.13826382,-0.25324363,-0.10140238,-0.22871214,-0.2201994,0.022046123,0.20798714,-0.04170089,-0.10454597,-0.24061681,-0.20889747,-0.10768425,-0.40679294,0.5150258,0.21084566,0.32965368,-0.15376388,0.16124672,-0.32320315,0.07319374,0.020445582,-0.25866958,0.053198412,0.2828099,-0.07264895,0.39151183,-0.239268,-0.08023385,-0.003825029,0.08397727,-0.06598889,-0.13068858,-0.031553917,0.1194568,-0.25859773,0.3567589,0.19870347,-0.05683541,-0.41926852,-0.21888837,-0.14832214,0.06094635,0.10491436,-0.08060684,-0.10101107,0.12091997,0.37584397,-0.12511234,0.16371071,0.22673726,-0.07926465,-0.0518785,0.03218196,0.12302057,0.19314122,-0.10008135,-0.0976799,-0.07039319,0.32197645,0.07017426,0.2669505,-0.14595048,0.14480428,-0.41985247,0.25014356,0.07433589,0.02265489,0.49539226,-0.18916044,-0.06353231,0.1376658,-0.2459343,0.14525136,-0.3265488,-0.10457385,-0.5395941,0.18612716,0.02216796,-0.031635687,0.005209777,-0.10375567,0.12706298,-0.2697416,-0.12511802,0.11968632,0.17749113,-0.08301512,0.2708025,0.16914062,0.36442238,-0.19980864,-0.01293731,-0.010529322
economy,-0.13037834,0.18217485,0.106944434,-0.16791841,0.04832141,0.06726122,0.26952875,0.25223902,-0.017076828,-0.20104568,-0.12093325,-0.15228797,-0.06393159,0.023614565,-0.22471489,-0.039696533,0.05874643,0.2084708,-0.054215066,-0.5990528,0.19279951,-0.04693872,0.5752683,0.0881055,-0.053719603,0.11667672,-0.13215303,-0.0015226433,-0.16198982,0.2101155,0.54135597,-0.20766744,0.3678406,-0.08720407,0.13763155,-0.20825496,-0.0068673734,-0.50462794,-0.20050757,-0.23362538,0.044955447,-0.18690296,0.13170575,-0.11699478,0.21148214,0.007884521,-0.11769562,-0.1785492,0.29566166,0.08757657,0.21201037,-0.2862235,-0.1510914,0.15703866,0.09094214,0.20556729,0.066868275,-0.12266183,-0.16684428,0.26098716,0.028443214,-0.053005233,-0.117304154,0.28589275,-0.11929329,-0.26124498,0.19064139,0.1311705,-0.07642358,0.45775762,-0.17671776,-0.11575785,-0.14912714,0.21749797,-0.0101214275,-0.054980576,0.013794958,0.15976782,-0.15948467,0.25219578,-0.070922315,-0.0819973,0.10613417,0.3340551,-0.37548092,0.2271701,-0.17182924,-0.11291839,-0.12736815,-0.15699162,0.31120783,-0.13627487,-0.043879073,-0.317466,0.26797888,-0.04038227,0.01944302,-0.12352155,0.3701555,0.15851127
june,-0.064774506,-0.29032955,0.45610353,-0.16680892,0.10677212,-0.5248535,0.3013962,0.54080546,0.4605019,-0.5805917,-0.18604022,-0.67516816,-0.3130917,-0.44073567,0.0715787,0.25930795,-0.24457005,-0.4643315,0.060487267,0.019918783,0.12036391,0.3445334,0.097660325,-0.05578764,-0.00896367,-0.045663092,-0.073052414,-0.3082967,-0.14722258,0.13069853,0.22620043,0.024420632,0.50603586,-0.006440468,-0.25924695,0.52966666,-0.020720027,-0.58897156,-0.5000586,-0.4914703,0.1334404,-0.5269802,0.09767165,-0.24964614,0.09243078,-0.08812314,-0.25308046,-0.019230027,-0.0151866255,0.012445881,0.19745637,-0.12829202,0.4048503,0.20977336,-0.3374726,0.12668923,0.23833245,-0.33726004,0.15803558,0.3893888,0.2221292,-0.13920984,0.05401315,-0.3007281,-0.37194383,-0.020302359,-0.01485121,0.4203407,0.05758203,0.21933372,-0.07801387,0.20338364,0.09975539,0.0030124811,0.39267057,0.10115759,0.18379956,-0.30075765,-0.028765677,0.1849839,0.3408266,0.14441203,-0.004792081,0.12933077,-0.49519154,0.17335938,0.40589586,-0.0039165155,-0.23283798,-0.28979045,0.048053604,-0.062007114,-0.25666657,0.28061503,0.3477973,0.38126007,-0.2818338,-0.11968631,0.23966047,-0.36927065
based,-0.19893153,-0.098305985,-0.13048689,-0.11466407,0.17172536,-0.074750006,0.35877597,0.09555903,0.25087425,-0.3348944,-0.2842615,-0.16339818,-0.21306397,0.11765616,-0.059739154,-0.028807422,0.14954579,-0.028795665,-0.053658508,-0.12709303,0.43399808,0.18692532,0.39273718,-0.10888639,0.35618365,-0.087263584,0.044440724,0.3223454,-0.1889402,-0.013512912,0.27931315,-0.15303187,0.2520012,-0.18933688,0.15634365,-0.033401918,0.3890364,-0.21400581,0.03615149,0.14844958,0.15661189,-0.11553262,0.059985314,-0.112339154,-0.09672459,-0.30822805,-0.07067112,-0.08630271,0.63370055,0.08017894,0.23381405,-0.36248073,0.0015376314,0.19919072,-0.48048174,0.38836384,0.058663614,-0.30079946,0.19720268,0.049730595,-0.10946502,0.34096152,-0.033396102,0.18312064,0.093772136,0.37313452,-0.053874597,0.35659212,-0.12426765,0.4427368,-0.06389885,0.39990774,0.20457084,0.063314594,0.4671817,-0.3805403,-0.26716796,-0.15175065,-0.11710636,-0.045337643,-0.42895526,-0.059266265,-0.2845219,0.050558053,-0.05552263,-0.07014253,-0.17386505,-0.39129177,0.06688415,-0.31814933,0.1340978,-0.05284265,0.26468056,-0.23844035,0.1374059,0.14345215,0.3064922,0.060007773,-0.049271785,0.12862392
forecast,-0.3108959,-0.09273413,0.34703475,-0.21828142,0.13189061,-0.16209349,0.28273657,0.32109788,-0.04862675,-0.4472834,-0.13048576,-0.49260667,-0.19839078,-0.24326925,-0.22422437,-0.24322037,0.015560665,-0.1568054,0.24144453,-0.2403158,0.45950702,-0.09573066,0.62197596,0.18981777,-0.12747134,0.012642437,-0.1314954,-0.26092154,-0.23946443,-0.049595866,0.2568478,-0.15777723,0.53578675,-0.24741213,-0.0935072,-0.18574306,0.039723944,-0.43309337,-0.37876472,-0.12252021,0.042896874,-0.2563028,0.20494957,-0.077862374,-0.3425351,-0.26643115,0.03122893,-0.3905468,0.12819716,0.01926321,0.07747034,-0.21089281,0.31030324,0.13103265,0.041535687,-0.20959644,0.30059737,-0.14248693,-0.059479058,0.36958486,0.22574028,-0.18272188,0.2714938,-0.03785188,-0.168856,-0.037803758,0.055756778,0.31489477,-0.2141605,0.32738066,-0.19739789,0.23154536,-0.029058468,0.0258223,0.52308977,-0.07858349,-0.1444181,-0.041057,-0.26443574,0.077273235,-0.2287355,0.08416556,-0.29492435,0.16932708,-0.44757122,-0.17524591,0.066416875,0.054323785,-0.005429952,-0.32082847,0.24482821,-0.07709149,-0.23695742,-0.045317765,0.55958503,0.15170138,-0.03189356,-0.07104414,0.14691463,-0.16954109
risks,-0.03327456,0.13185984,0.04526021,-0.26570302,0.107433684,-0.12786938,-0.0035392796,0.31650305,0.07308774,-0.5709035,0.012740209,0.08652887,-0.33743218,0.4057474,0.0120291505,0.046169937,-0.2746565,0.2487641,-0.053338166,-0.5447435,0.45895234,-0.112933934,0.34481823,-0.020992877,-0.016378133,0.27885813,-0.13106702,0.03298665,-0.026359955,0.20237534,0.4580791,-0.37512428,0.14706428,-0.14974125,0.23357442,-0.10286574,0.017969662,-0.27371848,-0.22412564,-0.052438628,0.19769815,0.15477826,0.13090883,0.031470694,0.3093294,-0.06884148,-0.27265075,-0.26636612,0.5068183,0.15432791,0.05487103,-0.27510273,0.05508395,0.06812045,0.05440055,0.20299676,-0.05567668,-0.21166004,0.05886833,0.03882363,-0.18260713,0.17372327,-0.3178339,0.14181739,-0.12750122,-0.090730265,0.114979826,0.058594264,-0.0155960545,0.54953337,-0.10153782,0.11638081,-0.10216311,0.15235105,0.19190994,-0.10609472,0.23224631,0.07697437,-0.31021786,0.31532505,-0.24139912,-0.050446134,-0.15053605,0.25335363,0.037367087,0.2562425,-0.45467436,-0.30534562,-0.09395339,-0.17794546,0.2628916,-0.08169643,-0.07779429,-0.36650598,0.080762856,0.004005323,0.17251915,-0.04312872,0.11755518,0.33169767
portfolio,-0.32892293,-0.06991621,0.25300696,0.0869199,0.25019473,-0.11669178,0.26938534,0.07276562,0.28333712,-0.76801854,0.24658437,-0.37824315,-0.6373506,0.21574405,0.029045582,-0.16355793,-0.12492113,-0.16709404,-0.069016576,0.16024616,0.20328824,0.11385206,-0.1380217,-0.007864034,0.31043547,-0.22742113,0.12403391,0.2833796,0.13393837,-0.025342353,0.2616855,-0.19382887,0.14321454,-0.09165249,0.10930824,0.29058763,0.4607378,-0.3520512,-0.16375653,0.015351751,0.47339967,-0.2540383,0.32469687,-0.011813785,0.06238596,-0.46391332,-0.29184076,-0.04057133,0.5155536,-0.024490265,0.25389656,-0.37894347,0.061355323,-0.089424156,-0.46563512,0.7178707,-0.016080322,-0.16948059,0.10375818,0.05777733,-0.23382981,0.3187252,0.055022452,0.2189583,-0.0011868213,0.27007133,-0.07576062,0.38980576,0.12918942,0.38328737,0.14030878,0.09646643,0.1529868,0.084058166,0.33577925,-0.104584076,0.3600674,-0.43651727,-0.079317406,0.16371152,-0.16419561,-0.20005772,-0.1642578,-0.022859378,-0.0043638754,0.3288415,-0.26419824,-0.4583625,-0.084939204,-0.12860031,0.26327646,-0.49764636,-0.08921631,-0.28884342,-0.19877136,0.14690675,0.23451914,0.055361643,0.039548513,0.2930749
debt,-0.2980826,0.13582422,-0.008339458,0.39358065,0.3849825,0.008775949,-0.13510703,0.3104568,-0.4255002,-0.47144997,-0.11714915,-0.13491791,-0.07755392,0.09464622,0.3230939,-0.3516188,-0.2106203,0.20396063,0.32329795,-0.28743112,-0.25724486,-0.49727657,0.67047656,-0.0949333,-0.09533466,-0.12049949,-0.46796918,0.07499744,0.056511056,-0.11949562,0.25377104,-0.28973836,0.21386728,0.01045941,-0.014703774,0.20719399,-0.0011764776,-0.03819055,-0.12001514,0.08132546,0.288853,-0.19501057,-0.08730027,0.015401721,0.011798754,-0.15429573,-0.031614777,0.13069028,0.28479493,-0.0406166,0.24573979,-0.13955571,-0.17891766,-0.07793799,-0.45542026,0.149104,-0.1588748,-0.06392445,-0.45438394,-0.0068349293,-0.045174584,0.27932706,0.121118665,0.33571497,0.029515805,0.12739839,0.2614056,0.18284714,-0.26615778,0.411027,0.034226947,0.41933432,0.22346173,0.52408546,0.32301378,0.17899598,-0.1718146,-0.28189805,-0.32135987,-0.08143341,-0.1262353,-0.38435945,-0.043805394,0.26858875,-0.04694295,0.12415155,-0.16459858,-0.5077643,0.20311542,0.079262316,0.40520394,-0.046084985,-0.20842764,0.020290412,0.31935096,-0.096228436,-0.23039038,-0.08156842,-0.05974357,0.1892055
expected,-0.23246963,-0.008547154,0.341701,-0.21306384,0.087024294,-0.058766756,0.29067704,0.10946204,0.10786265,-0.52436495,0.007606011,-0.32569784,-0.23490296,-0.26846865,-0.007152468,-0.19226383,0.034347866,-0.16550003,0.22322804,-0.3076492,0.21420163,0.027242929,0.4023147,0.078945234,-0.041089598,-0.013508593,-0.06073422,0.041942306,-0.08334432,-0.036666155,0.31608093,-0.10519809,0.40196046,-0.07478903,0.057549104,0.0012929123,0.1891836,-0.4797477,-0.286823,-0.044233,0.063093126,-0.19729526,0.17150633,-0.17628708,-0.0819637,-0.27399656,-0.024321029,-0.20018291,0.29865676,0.03103979,0.17681624,-0.105440155,0.04208645,0.1763504,-0.17266713,0.043602698,0.15241262,-0.07488561,-0.031711947,0.2939244,0.0437647,-0.0022508258,0.07730512,0.19007401,-0.107773915,-0.15505746,-0.006266707,0.36885336,0.040051382,0.5573341,-0.087134674,0.13952272,-0.07887343,0.09475144,0.3452552,-0.20598379,-0.008400588,-0.05452398,-0.13873015,0.1648822,-0.021235796,0.014179279,-0.098632045,0.24316534,-0.27019396,0.15041997,-0.1455187,0.03287036,-0.013822099,-0.23998912,0.34002048,-0.27395624,-0.22490822,-0.14808942,0.22870286,-0.0022342086,-0.0347283,-0.031926677,0.24222673,-0.0033053388
jul,-0.22022167,0.3002194,0.2537738,-0.053988468,0.16512431,0.1993434,0.4449048,0.1516782,-0.46399632,0.29444525,-0.35773882,-1.1008242,0.15284897,-0.3127743,-0.3448952,-0.317718,0.11099934,-0.55112606,0.085462324,-0.21546528,0.51214635,0.22071065,0.38098514,-0.12494871,-0.033956826,-0.32158184,-0.14390697,-0.25976524,-0.6257866,-0.36433563,0.7406498,-0.05916339,0.3678343,-0.07095403,-0.4076712,0.13410015,0.011120068,-0.2789658,-0.3742013,-0.35636383,-0.1460755,-0.8287457,0.11567887,-0.13212945,-0.6026794,-0.3860481,-0.37447932,-0.19256668,-0.26348385,-0.116574004,0.2802423,-0.5927541,0.21296239,0.16955222,0.059736747,0.13761774,0.41187122,0.0063034818,-0.7525431,0.6750608,0.32438752,-0.46217093,0.36559254,-0.06266431,-0.01509306,0.27200142,-0.22244956,0.6099716,-0.21397322,-0.053363856,-0.48352686,0.09599229,0.39851436,-0.24339786,0.7586115,-0.08947306,-0.18250053,-0.1900364,0.01760795,-0.31158522,-0.29422867,-0.3341334,-0.57756567,0.40088907,-0.3036008,-0.24172607,0.3946508,0.09108718,0.5361944,-0.24916536,0.06019283,0.3816545,-0.15758054,-0.027014246,0.5480979,0.4810156,0.011669717,-0.029739227,-0.0342547,-0.4136735
change,-0.32624248,-0.008609949,0.02278989,-0.37422186,0.012580682,0.058935586,0.43564618,-0.21899168,0.18337588,-0.14801645,-0.6402153,-0.23201202,-0.21750583,-0.12744085,-0.03360024,-0.23910476,0.088752665,-0.17150323,-0.09596991,-0.32228577,0.51495403,0.40822637,0.6227156,-0.2676452,0.29414332,0.062033515,-0.16216116,0.18167523,-0.28713804,0.03211668,0.56806844,0.020481944,0.3809985,-0.06645999,0.072717726,-0.116144754,0.33740222,-0.16308089,-0.13252445,0.23414522,-0.25249133,-0.09068713,0.24698102,0.0017873894,-0.38080934,-0.3476711,0.122532375,0.0067294966,0.47108823,0.17130044,0.3824845,-0.353865,0.21780066,0.44457865,-0.5083871,0.28808022,0.26132348,-0.20842056,0.14384195,0.14347698,0.15589043,0.23889646,0.031816434,0.21289061,0.13595994,0.19537069,-0.081841,0.43803912,-0.15931156,0.47646397,-0.2928979,0.4678997,0.22483708,0.044512622,0.36920932,-0.41189367,-0.38942617,0.011643542,-0.053652655,-0.032992937,-0.42296737,-0.025443906,-0.43474737,-0.04503837,0.004430641,-0.25879437,0.14767633,-0.088286765,0.0007788963,-0.23359282,0.052517522,0.064902104,0.2447823,-0.27129933,0.24674402,0.086534865,0.29254556,0.20875017,0.30736902,-0.30722934
eur,-0.5477461,0.37283063,0.32672715,-0.37626508,-0.22564954,-0.22817187,0.17263386,0.495468,-0.320091,-0.115843475,-0.15349726,-0.616405,0.13285111,0.14776278,-0.13479632,-0.5636263,-0.79651195,-0.80718744,0.29577222,-0.57101315,0.6569205,0.62756705,0.35331878,0.095056824,-0.11469811,-0.40949816,0.20577335,-0.31901595,-0.40913257,-0.2545663,0.22648078,0.03689366,0.6489873,0.23778595,-0.44944707,0.40357345,0.09413909,-0.10967138,-0.5786124,-0.31912467,0.5051274,-0.4727414,0.2831674,0.12124291,-0.10464043,-0.33477083,-0.3959967,-0.34170434,-0.56407934,-0.0389864,-0.5579174,0.0047382205,-0.07784291,0.28089705,0.10075787,-0.3284775,0.3662543,0.05656218,-0.8134527,-0.0058856704,0.25061724,0.18013318,-0.3062184,-0.42958724,-0.106948726,0.08634021,-0.17718564,0.28310645,-0.15831678,-0.06977398,-0.76541835,0.29694086,0.24483697,-0.2024422,0.73629624,0.3751769,0.28086853,-0.45999494,-0.60221475,0.1445097,0.1425405,-0.42684555,-0.45905703,0.50952643,0.2684562,-0.14332043,-0.07534819,-0.023042932,0.1998488,-0.0734185,-0.009642447,0.16499162,-0.14584802,0.20954913,0.6780998,0.3331198,0.069258496,-0.46893856,-0.3331133,0.36316404
tightening,-0.49581987,0.22279027,-0.0673553,-0.32758003,-0.10950978,0.0179243,0.29030722,-0.12317558,-0.12246747,-0.12913808,0.048405204,-0.26705024,-0.06327014,0.122196525,-0.08150914,-0.30787733,-0.073839664,0.04436309,-0.1998823,-0.7465521,0.1829211,0.19187711,0.69044983,0.31622794,-0.35937092,-0.23619698,0.09573964,-0.21512444,-0.28946173,0.19651024,0.87365836,-0.19118592,0.56379557,0.06804132,-0.061776202,-0.164485,0.1413773,-0.4857232,-0.22841132,-0.16275376,-0.113742545,-0.5000312,0.21743622,-0.12830667,0.2078682,0.06976892,0.009368151,-0.056190867,0.2929219,0.11787676,0.16721506,-0.1055644,-0.017828768,0.2508268,0.22745581,0.34833774,0.2734623,-0.09434855,-0.15588929,0.5416857,0.37683412,-0.039023723,-0.053063072,0.05291537,0.033349775,-0.3892031,0.17736167,0.10055441,-0.13522995,0.6176309,-0.25118038,-0.05762715,-0.109090246,0.39095014,0.2914296,0.11266236,-0.13506658,0.20620662,-0.11553544,0.022120403,0.14881326,-0.29640228,-0.2299734,0.24344744,-0.09647999,0.030393774,-0.1986139,-0.13300128,-0.013096978,-0.013254915,0.31612644,-0.1739669,0.021703541,-0.12438832,0.20374131,-0.25177065,0.24022257,-0.31262597,0.37991494,-0.15479682
bond,-0.47511682,0.006937757,-0.23053965,0.4299643,0.32660878,-0.065742984,0.35787573,0.211871,-0.35880086,-0.42691863,0.27618876,-0.39150384,-0.13805954,0.14448018,0.3781274,-0.2889865,-0.18267037,0.06442187,-0.053522762,-0.019031616,0.033235397,-0.36606905,0.15934369,0.12359865,0.0019647102,-0.6388192,0.03019128,-0.0544841,0.006656657,-0.05381634,0.61863136,-0.22753762,0.3647891,-0.09451459,-0.22283438,0.3820921,0.18419537,-0.15767786,-0.30298752,-0.040149894,0.0907552,-0.5592576,0.13555141,0.088153034,0.009139958,-0.19184934,-0.10243699,-0.054345023,0.20125958,0.11635005,0.2619797,-0.008309013,-0.09608483,-0.17952535,-0.30952886,0.57606125,-0.007938467,-0.099996395,-0.42226255,0.22843625,0.07711919,0.288517,0.10438539,0.015836256,-0.2028307,0.15954804,0.16193768,0.12423977,-0.14308828,0.3904539,0.123231985,0.07838661,0.09359838,0.47963786,0.4217046,0.097837046,0.19255923,-0.19085583,-0.24508241,-0.032305837,-0.0866638,-0.4192099,-0.15543003,0.07764777,-0.035443895,0.30248848,-0.044668045,-0.53520447,0.030229125,-0.30127445,0.42519215,-0.37454605,0.02339296,0.2606366,0.001982311,0.03752291,0.32530996,-0.3922099,-0.1889126,0.11008841
note,-0.19730155,-0.24022754,-0.049491167,0.0872478,0.21367268,-0.11242739,0.32884058,0.14992936,0.12003099,-0.41697,-0.12577866,-0.47607738,-0.2140981,0.11058073,-0.1882239,-0.097183004,0.23248847,-0.0031204147,0.033599954,0.14847231,0.2846142,-0.089084685,0.2635294,-0.07190449,0.2249513,-0.14757778,-0.11944766,0.3325917,-0.14507842,-0.13195363,0.4366049,-0.14230517,0.22228013,-0.12983452,0.0243743,-0.04153773,0.39678642,-0.3545779,0.06190127,-0.023857325,0.06015555,-0.3693109,0.14709787,-0.15344818,-0.30693066,-0.33988774,-0.08045789,-0.05756568,0.4896037,0.04892315,0.25832686,-0.30764508,0.080706485,0.057198457,-0.43388432,0.37241608,0.2444872,-0.19344193,-0.025850438,0.116603196,0.060945097,0.17976841,0.22701073,0.12521102,-0.043901976,0.33437634,0.1146115,0.4255624,-0.15874527,0.35143864,0.11910504,0.230378,0.23825264,0.23867732,0.5798941,-0.07389717,-0.3426121,-0.13140987,0.046170175,-0.11271032,-0.47462353,0.037655164,-0.2418881,-0.037269846,-0.10475964,-0.14636275,0.0030873048,-0.31753552,-0.05090688,-0.4195071,0.17364922,-0.011250719,0.18606138,-0.12865646,0.1057004,0.10991192,0.31464148,0.07382194,-0.13520756,-0.11587113
july,-0.3015141,-0.0127704,0.07485247,-0.18331847,-0.03485038,-0.41657093,0.22846477,0.30570063,-0.24567567,-0.25857216,-0.1125098,-0.74750686,-0.06437501,-0.02093487,-0.13068344,-0.0020146475,-0.38710636,-0.3396975,-0.13773379,-0.358146,0.15558681,0.23010023,0.3839429,0.13199961,-0.397591,-0.17341574,-0.12740858,-0.18222131,-0.18329336,0.11633535,0.7816299,-0.060323644,0.5295636,0.12983572,-0.35510576,0.2269847,0.025748279,-0.21575862,-0.1477541,-0.34766704,0.19997221,-0.6702657,0.17505066,0.016672214,0.09822887,-0.002802978,-0.05273417,0.11731266,-0.2610498,-0.0089573525,0.20303261,-0.4018991,0.19424213,0.12855107,-0.039607618,0.2538493,0.36390725,-0.03171242,-0.3025345,0.27535287,0.41478163,-0.08560248,0.06928343,-0.64217585,-0.13975504,0.102720454,0.42690715,0.2759307,-0.26578376,0.12539607,-0.16123258,0.13267776,0.43125865,0.48693398,0.42694056,0.6482221,-0.033932988,-0.06791324,-0.07053719,-0.18048403,-0.10003482,-0.07175163,-0.33746994,0.09065021,-0.03594582,-0.23054749,0.33919764,-0.07403775,-0.15829241,-0.047720846,-0.03196666,0.23562618,0.026794953,0.2566171,0.27539724,-0.06384909,0.30793378,-0.08142265,0.0852156,-0.4904566
earnings,-0.06781937,-0.29816985,-0.10495438,-0.051494464,0.52426547,0.017718587,0.5969796,0.37442154,-0.19386636,-0.4650453,0.049709015,-0.23005763,-0.30305812,-0.14120635,-0.052338924,0.16414887,0.19073834,0.31647855,-0.07341765,-0.13479236,0.16105482,-0.3822621,0.40247154,0.086128056,0.07158987,-0.20357895,0.061918594,-0.18583538,-0.2334799,-0.04494877,0.4077631,-0.24311242,0.4498634,-0.46167517,0.03350699,0.06239581,0.09205543,-0.5649091,-0.3356993,-0.14470416,0.09814138,-0.2906441,0.05795902,0.05373918,-0.019930433,-0.13723396,-0.15667659,-0.14405723,0.31784052,0.1685678,0.20798358,-0.16256927,0.07453307,0.07079854,-0.21929246,0.4343692,0.14901446,-0.31873024,-0.080966674,0.14803898,-0.11853392,0.15991908,0.24980223,0.24146158,-0.26151994,0.02268034,0.2546499,0.2204377,-0.09567325,0.35812825,0.012204095,0.15043254,-0.1585446,0.3236511,0.2855291,-0.3293792,-0.012639753,0.21419476,-0.26084414,0.25852016,-0.39393258,0.0032257454,-0.04453738,0.044429664,-0.6183992,0.23900421,0.106542796,-0.15053056,-0.16965958,-0.49332544,0.24823706,-0.035028826,0.07888284,0.098923735,0.253739,0.27215052,0.2683381,-0.33724758,0.26655638,0.11380066
november,-0.003675409,-0.25956446,0.05968804,0.009560482,0.3037631,-0.26481402,0.45072266,0.34879136,-0.028318407,-0.29742914,-0.13490093,-0.66602314,-0.28022245,-0.08489369,-0.194687,0.07222589,0.17771058,0.087776005,-0.1654673,0.10211826,0.22466429,-0.21269752,0.2451541,-0.10860507,-0.0307553,-0.16270536,-0.16665205,0.053569134,-0.08432191,0.078441344,0.70313513,-0.2310773,0.41708228,-0.1379742,-0.08296188,-0.06275774,0.22072525,-0.33597842,0.0069447574,-0.23427474,-0.06807129,-0.5521663,0.22516295,-0.106858514,-0.18572576,-0.13685237,0.051362015,-0.06579027,0.27722886,0.0027396092,0.4854497,-0.54710877,0.24419843,0.0057893577,-0.29503942,0.48512957,0.23159428,-0.14329752,0.013701254,0.18793719,0.23181036,-0.02337168,0.3111785,-0.23565778,-0.14131859,0.28237697,0.42359844,0.43742985,-0.34479585,0.20118438,0.13454346,-0.09992756,0.35893923,0.40606296,0.4185751,0.23123233,-0.12337862,0.12711418,-0.017062046,-0.12466172,-0.4400476,0.116600014,-0.2189296,-0.042445567,-0.36447293,-0.022056377,0.336431,-0.24513426,-0.1856789,-0.429796,0.06546157,0.07144348,0.10139175,-0.055724382,0.2207627,0.092851415,0.20029376,0.119653635,0.20064433,-0.5156088
capital,0.055016935,-0.013842996,-0.23062357,0.24517694,0.3665922,-0.099743396,0.211222,0.3981459,-0.3249984,-0.2475555,-0.22386572,-0.21700904,0.035785124,0.15998153,0.19985019,0.14732291,-0.050176475,0.13426895,-0.060240477,-0.30695745,0.021703819,-0.23850031,0.34144595,-0.09971137,0.21149541,-0.072196305,-0.40069544,0.30143124,-0.06048335,-0.078725174,0.38397092,-0.2468881,0.06861059,0.008441487,-0.09345377,0.10642829,0.11419784,0.031165011,-0.068526104,-0.118281744,0.0614153,-0.11851606,-0.07036008,0.07682689,0.12586325,-0.013454229,-0.297306,0.06075911,0.27777514,0.18825807,0.30390322,-0.40732715,-0.16470031,-0.20918241,-0.4071931,0.34534678,-0.14654332,-0.31485805,-0.21292943,0.1504197,0.01518797,0.24219334,0.10008075,0.10327449,-0.18176457,0.35149023,0.25884575,0.21764283,-0.19207032,0.12857072,0.11109184,0.329712,0.347411,0.36817455,0.14779024,-0.051831402,-0.082442805,-0.020596094,-0.06571691,-0.036493693,-0.20589899,-0.074326254,0.07999963,0.22845533,-0.11155057,0.07485673,0.1382982,-0.38091597,0.083119415,-0.15586632,0.26788616,0.26970527,0.10479763,-0.027908497,0.09217356,0.2434415,0.063804746,-0.037199255,0.2141422,0.20606057
europe,0.2121868,0.065370075,0.08555691,-0.005350982,0.20147236,-0.20663753,0.09669382,0.597258,-0.37984174,-0.19378024,0.0761147,-0.28699756,0.00015754956,0.1520847,-0.14296918,0.23900068,-0.16446528,0.12302017,0.14116475,-0.26647776,0.14446317,-0.38984138,0.36143035,-0.061211504,0.0016306832,-0.0033006228,-0.2590492,-0.19358678,-0.18977912,-0.07108646,0.5559997,-0.118389376,0.18211204,-0.10470123,0.032933865,0.037938852,-0.23621461,-0.4852138,-0.14636569,-0.39444685,0.24968824,-0.3493765,-0.2311936,0.028676499,0.14331312,0.051414605,-0.2590127,-0.008418156,0.045060225,0.08351672,0.2718836,-0.32032293,-0.23817009,-0.06368719,0.21353234,0.18072394,0.071353644,0.026079586,-0.3922538,0.05957995,-0.12313641,-0.14791904,-0.062411033,-0.04459275,-0.23701622,-0.11783901,0.39626047,0.11727061,-0.20083842,0.24971332,0.05048624,-0.042459883,0.17228457,0.38576657,0.13667853,0.23933358,0.10329849,0.055197343,-0.16164677,0.28311485,-0.22813863,0.06840553,0.17585805,0.33266026,-0.28222162,0.06749151,0.08542455,-0.008571778,-0.04993992,-0.18813683,0.22954443,0.33904842,-0.10690484,0.11058693,0.29790187,0.062307984,0.14082879,-0.104386546,-0.016471466,0.047718246
core,0.09269075,-0.015742905,0.24479501,0.38862646,0.16824666,-0.20939195,0.47178861,0.22695693,-0.2035544,-0.14084183,-0.2005895,-0.59798384,0.051119886,-0.07841129,-0.21469094,0.028530443,0.5300908,-0.3932249,0.06093649,-0.29134145,0.51042044,0.34267992,0.3540011,-0.12900057,-0.12338723,-0.024120895,-0.21864986,0.44461194,-0.26363212,0.21270259,0.75580627,-0.3249065,0.32644713,-0.22483398,-0.06676956,0.2500917,0.4984801,-0.44745797,-0.16219114,-0.441806,-0.6068713,-0.37574512,-0.08797602,0.082895316,-0.4318795,0.110379435,-0.14182588,-0.09647003,0.50349206,0.19071908,0.2624021,0.022337152,0.04697158,0.009983116,-0.5195298,-0.07307351,0.21292682,-0.060128678,-0.23743509,0.15080062,0.16910923,0.046653382,-0.20326383,0.2725336,-0.27703327,0.2245306,-0.13074304,0.660512,-0.123571314,0.2273312,-0.13495262,0.2787159,-0.0493341,0.28252453,0.6291549,-0.14298551,-0.40955353,0.17425495,0.12587902,0.029045414,0.13837056,0.31099296,0.017887192,0.111988,-0.16505186,0.46914285,0.34948215,-0.044165578,0.17181467,-0.18474123,0.11936372,-0.18749836,-0.16869198,-0.20049897,0.4255799,-0.026561836,-0.5041743,-0.10973544,0.3949349,-0.30599177
months,-0.34737527,-0.1828099,-0.030039642,-0.22078742,0.16045123,0.15969649,0.47527102,0.21335737,0.005784175,-0.37206617,0.07262279,-0.30926448,-0.14792907,-0.13849203,-0.2948198,-0.04087939,0.11527767,-0.006328434,0.0035376167,-0.25604582,0.4228187,-0.034626447,0.29836708,0.18612775,0.13931274,-0.24959216,0.23344813,-0.07096242,-0.32576174,-0.15442744,0.37898982,-0.095177785,0.45597145,-0.29857087,0.009007238,0.07331478,0.25850523,-0.5462118,-0.38675943,-0.041645616,0.09507986,-0.45352823,0.23062117,0.045310806,0.06913519,-0.2116084,-0.18415797,-0.1290313,0.1617713,-0.04205127,0.06733322,-0.09933926,0.13100114,0.2039278,-0.0147218285,0.2833626,0.2071745,-0.2656469,-0.06474754,0.40922448,0.18488313,0.012966391,0.24206151,0.12950803,-0.06833803,0.11477493,0.19854507,0.20121068,-0.025324944,0.35802886,-0.15472363,0.11039683,-0.20715286,0.15548459,0.3779928,-0.1710583,-0.07434638,-0.02169934,-0.12442704,0.18857417,-0.121298224,-0.19727921,-0.2773144,0.013519143,-0.42238745,0.18572482,-0.10258534,-0.26096871,-0.037487872,-0.30941907,0.30155772,-0.014367731,-0.0053607826,-0.025070826,0.17180125,0.11490075,0.08180349,-0.26236004,0.2800083,0.03616152
corporate,-0.38754946,0.18728617,-0.25730067,0.5043985,0.4804703,0.15009291,0.122240655,0.21811824,-0.5905389,-0.07060734,-0.011324471,-0.2681316,-0.22874285,0.027886212,0.34547982,-0.3747194,-0.15037818,0.3531848,-0.07668556,0.00035048468,0.03417824,-0.7328831,0.3079158,0.013250911,-0.06726452,-0.47080573,-0.07155396,-0.19253261,-0.08212096,-0.18075463,0.57907194,-0.31564322,0.26397344,-0.08386197,-0.2227164,0.082906805,0.038470782,0.13300213,-0.17519265,-0.050594814,0.044505015,-0.3148617,0.038247425,-0.022270856,-0.17585409,-0.24323945,-0.045198813,-0.10362604,0.19841325,0.020450782,0.24069758,-0.21676217,-0.16573204,-0.06323237,-0.2507946,0.51285416,-0.19193496,-0.17566,-0.7463515,0.09499799,0.021888753,0.30297166,0.24071905,0.14650902,-0.067664325,0.25739715,0.20511611,0.062373694,-0.31232378,0.15178363,-0.015522378,0.03362116,0.13654408,0.42979476,0.3056979,0.10657126,0.12801126,-0.02804299,-0.3544281,-0.17110941,-0.3022666,-0.5667077,-0.22221786,0.12895186,-0.1660309,0.08904153,0.14159642,-0.50677544,0.22663869,-0.21709506,0.34867114,-0.1726674,0.035636686,0.13903418,0.21466644,0.2563143,0.25893447,-0.26725996,-0.24549112,0.10031736
cash,-0.2610417,0.05829133,0.33074856,0.046400335,0.4567857,-0.14754479,-0.013836126,0.15930143,-0.26996034,-0.5778637,0.18108916,-0.4744484,-0.2635026,0.122806735,0.03208708,-0.34236753,-0.096652836,-0.31807518,0.15873682,-0.26744547,0.2494359,-0.010393253,0.19373325,0.020231687,-0.064118646,-0.1922192,-0.08230788,0.22541364,0.0057556923,-0.030624159,0.19210714,-0.27222914,0.4278761,-0.24904275,-0.023290904,0.5878429,0.3400526,-0.07252811,-0.3398314,0.07864474,0.12066442,-0.32572192,0.0032273403,0.06353513,0.06477359,-0.5223777,-0.09298111,-0.024054375,0.29572874,0.019727254,-0.059608996,0.006137432,0.09718693,0.13835335,-0.46857545,0.13186508,0.058525275,-0.2393838,-0.21339661,-0.10211149,-0.15723602,0.35516348,-0.07082741,0.36143705,-0.20436041,0.39413214,0.026833778,0.22473735,0.043580282,0.53449327,-0.08658551,0.3581737,-0.12442462,0.42901418,0.734608,0.17845201,0.13884781,-0.37328,-0.41494197,-0.028103549,0.18555409,-0.15313089,-0.28695554,0.0003777427,0.0019756844,0.5344017,-0.2938072,-0.40400964,0.23019399,-0.009219841,0.2466222,-0.3425368,-0.2849533,-0.01898442,0.22983032,0.022251727,-0.25776264,-0.15235372,-0.3127635,0.2161628
supply,0.30492845,0.36156672,0.1982914,-0.07752978,0.2323943,-0.18988602,0.37789217,0.6509896,0.12535702,-0.21745658,-0.06321923,-0.19795588,0.15062223,0.26682255,-0.22773129,0.16464338,0.13984834,0.11527045,-0.0018344333,-0.48905268,0.3917375,-0.1778516,0.25092393,-0.0835129,0.16966459,0.05171168,-0.27100712,0.019889941,-0.1726721,0.1937703,0.4283756,-0.14419277,0.08848919,-0.10970649,0.15033862,-0.10552835,-0.08669363,-0.4035575,-0.22554341,-0.40582874,-0.07564588,-0.112942785,0.08199276,-0.2488151,0.12724274,0.032400355,-0.3094527,-0.5008379,0.2476324,0.2575261,0.041849844,-0.35152966,-0.31695697,0.10390661,0.21546319,0.17892839,-0.038645476,0.07107974,-0.33212033,0.16812165,-0.0029801168,-0.030170592,-0.23077753,0.16921438,-0.29162347,-0.09501171,0.09659132,0.15030412,-0.042538766,0.28177068,-0.12432817,-0.4291086,0.06746827,0.116025485,0.052542124,0.028082699,0.19502932,0.21185532,-0.16129825,0.42396984,-0.19527015,-0.026075592,0.14776616,0.38878354,-0.2385951,0.32139328,-0.011820909,0.006220867,0.11724722,-0.4051872,0.15169194,-0.03706353,-0.022493815,-0.3741057,0.27272508,0.15718462,-0.07036633,-0.12944214,0.22359902,0.3661937
levels,-0.19222827,0.070518814,0.09001119,-0.03210274,0.27080217,0.05814409,0.32557783,0.2821916,-0.11214822,-0.26181212,-0.012067738,-0.30352715,-0.09335926,0.1460502,-0.16404755,-0.1801337,0.16674182,0.15835106,0.07230405,-0.23184672,0.24112171,-0.17754312,0.36378896,-0.024791319,0.008254388,-0.24901028,-0.08413863,0.052938946,-0.23334709,0.060419336,0.31918007,-0.28472358,0.36082998,-0.33005908,-0.061333194,-0.15587552,0.09511826,-0.2815521,-0.23454003,-0.11980316,-0.05597855,-0.18729967,0.15324497,-0.05775093,-0.030860648,-0.22866505,-0.22612347,-0.28635594,0.2527468,0.060273577,-0.15100014,-0.10818925,0.13855144,0.13621713,-0.009010181,0.1671729,0.069083266,-0.21611074,-0.23130713,0.1419261,-0.13656488,0.11056882,0.10674853,0.2587976,-0.2028573,0.013970948,0.04336693,0.19192249,-0.056015186,0.33123004,-0.19166636,0.0008677145,-0.23611863,0.012358747,0.3651829,-0.22674632,-0.043929685,0.14607807,-0.42096707,0.10871723,-0.17753011,-0.22822839,-0.26145223,0.34225088,-0.28306803,0.15040089,-0.069733635,-0.032082528,0.08464539,-0.40972465,0.16462989,-0.25536302,-0.065781616,-0.14892577,0.3606429,0.123248406,0.09537854,-0.11508338,0.17223193,0.17446648
remain,-0.13639663,0.23895198,0.029322565,0.061961316,0.1526164,-0.039443076,0.38746035,0.28869143,-0.14414223,-0.2533604,0.13540523,-0.2043166,-0.012077964,0.21135761,-0.03236983,-0.09258964,0.026924336,0.0744949,-0.029672332,-0.44886616,0.27748233,-0.09345683,0.3717493,0.11042325,-0.12667249,-0.22498038,-0.00086723466,-0.06112881,-0.14583388,0.21450754,0.52444124,-0.28191972,0.32240352,-0.19368154,-0.049857274,-0.027854135,0.11916485,-0.34778503,-0.30863178,-0.188934,-0.073216915,-0.23764615,0.14877178,-0.01908132,0.056688435,-0.045246765,-0.17961664,-0.2756066,0.26445928,0.23957595,-0.05725222,-0.033677462,-0.0871784,0.05494449,0.03998892,0.20039034,0.040424094,-0.080463134,-0.30644286,0.21608138,0.0003529792,0.044862296,-0.096960254,0.17365281,-0.19121999,-0.1643934,0.06527981,0.14577757,-0.050915945,0.35138467,-0.08358452,-0.063637525,-0.16785131,0.13387164,0.3053265,-0.0015580831,0.105166905,0.20649984,-0.25431785,0.18570042,0.028501805,-0.13100894,-0.09618212,0.29000387,-0.18140028,0.34576634,-0.12242168,-0.04998311,0.02918833,-0.2824749,0.24572457,-0.2762607,-0.057548966,-0.20466933,0.24519072,-0.010164657,0.028816614,-0.2890053,0.21802549,0.23271638
macro,0.07667433,-0.4104589,0.3080537,-0.24104707,0.33326632,-0.7427061,0.2957385,0.6378314,0.47171453,-0.783531,-0.09959833,-0.6209568,-0.6402817,0.0138696665,-0.085068285,0.39127454,-0.3387359,-0.025226358,-0.43552744,-0.023661975,0.055256546,0.06181423,0.29832685,-0.008284648,-0.04144457,0.17729788,-0.20792383,-0.15877682,-0.04352246,0.3825903,0.61402035,-0.29297695,0.49576107,-0.13100107,-0.09419738,0.26370344,0.013871186,-0.64565223,-0.13374683,-0.4112588,0.21502158,-0.36182028,0.1169029,-0.23381875,0.34062767,-0.02327031,-0.07442844,0.028785618,0.4741426,0.1351627,0.6575611,-0.6833284,0.35397503,-0.0139398165,-0.39468166,0.59254134,0.22578935,-0.3048303,0.41001484,0.16089687,0.2518294,-0.01769608,0.13657504,-0.45058775,-0.317036,0.09284065,0.4729312,0.3653861,-0.21295217,0.3275383,0.18603556,0.081739515,0.30177566,0.41036996,0.18806812,0.399762,0.15284035,-0.07563189,-0.04980226,0.13383733,-0.16364741,0.31965837,-0.045971006,-0.023840604,-0.48888353,0.023048993,0.34499407,-0.2196383,-0.5208336,-0.21822773,0.14751521,0.03973516,0.031226957,0.02644563,0.2004305,0.2708656,0.26270533,0.13168435,0.31490278,-0.53998715
federal,-0.47530028,0.19150473,-0.18774275,-0.016610473,-0.051405095,0.13415064,0.1921872,-0.20698884,0.2272897,0.025052568,-0.4747353,-0.45992026,0.0023659805,-0.026598876,-0.1704497,-0.118791886,0.016784549,0.024199806,0.074899115,-0.36833668,-0.20652829,0.24835251,0.75775963,0.0017436472,-0.32501748,-0.13927922,-0.11032127,-0.044438254,-0.106928624,0.17076929,0.83941,-0.1557632,0.46217453,0.3344765,-0.04853407,-0.034051057,0.1528822,-0.6326308,0.038211748,0.0270295,0.037443843,-0.71661824,0.2835682,-0.3945121,-0.17440237,0.08392027,0.07002834,0.22549786,0.34681723,-0.05353952,0.4673367,-0.2755291,0.15994132,0.10593112,-0.33107954,0.40874097,0.4477117,-0.028164545,-0.39342088,0.44662586,0.48765504,0.18796778,0.007341845,0.09607675,0.36098653,-0.3276449,0.177481,0.2864118,-0.24043614,0.2649843,0.12489536,0.08890317,0.060467012,0.43512467,0.52275294,0.3537135,-0.45168456,-0.033590328,0.2277359,-0.25110266,0.0007395689,-0.26150623,-0.12172235,0.15654328,-0.0993467,-0.16299395,0.0494888,-0.27329725,-0.111107334,-0.09059601,0.2987213,-0.07068025,0.075284295,-0.2735216,0.1295503,-0.41796425,-0.18323837,-0.1320179,0.51834035,-0.26826045
consumer,0.07424263,0.28120655,0.26920047,-0.033694338,0.26720637,0.005872632,0.2321676,0.39903972,-0.2745817,-0.13836285,-0.29742074,-0.42579928,0.03914523,-0.08627753,-0.11192248,-0.051795006,0.18790561,-0.027711809,0.107828915,-0.5783425,0.2658105,-0.15808599,0.5989695,-0.118730664,-0.13637534,0.052972347,-0.26762307,-0.06356967,-0.2141749,0.14072877,0.40695187,-0.23336206,0.39681762,-0.20263705,0.0042826445,-0.030979738,0.06247281,-0.2695651,-0.45918056,-0.26615065,-0.3477198,-0.0769178,0.043450087,-0.21250278,-0.10732197,-0.08032721,-0.0762533,-0.25024694,0.2697293,0.20699663,-0.018970506,-0.18139723,0.13010381,0.27660483,-0.12561236,-0.10584694,-0.03594637,-0.18399517,-0.32442874,0.19145283,0.08176929,0.00465346,-0.038178373,0.44559106,-0.34329274,-0.075050935,-0.012157345,0.27985513,-0.15766932,0.3407399,-0.31202233,-0.03147208,-0.11977726,0.016099757,0.28705338,-0.095243275,-0.06763859,0.35700053,-0.21646617,0.117642716,0.050242774,-0.02161387,-0.12874785,0.31994882,-0.34690025,0.23991528,0.21694455,0.1280451,0.16848388,-0.16398977,0.14721078,-0.09460448,-0.22826022,-0.14650933,0.5817763,0.11071831,-0.38243407,-0.14563787,0.34767458,0.085869424
cpi,0.0030620322,0.04189593,0.43755725,0.028920036,0.0053587276,-0.25572366,0.54447,0.38621897,0.040604297,-0.11693904,-0.43131843,-0.69429946,0.048437316,-0.414688,-0.20118351,0.09774911,0.25062913,-0.5878258,0.20193839,-0.3913047,0.7505977,0.35931158,0.38386735,-0.10953234,-0.0708587,0.14816895,-0.20442925,-0.089746,-0.45415458,0.04107357,0.6982149,-0.06144302,0.365026,-0.18640952,-0.08015345,0.15589544,0.30434328,-0.6357559,-0.48064402,-0.3893294,-0.46516123,-0.43827814,-0.03319553,-0.016589997,-0.5754967,-0.038185675,-0.17528117,-0.21720639,0.3172793,0.22991364,0.31239766,-0.17088526,0.04750084,0.31173292,-0.34304926,-0.04086548,0.41216633,-0.043717656,-0.3296271,0.3918523,0.384089,-0.15051195,-0.13128498,0.03914518,-0.28317872,0.038567826,-0.25855765,0.6571036,-0.07458966,0.08973177,-0.34961817,0.20957802,0.10035203,0.019531922,0.6022039,-0.1678639,-0.2234417,0.20633198,0.1263513,0.2543707,0.008426011,0.29732004,-0.020399513,0.20557746,-0.544694,0.1297928,0.5758753,0.24104895,0.15079847,-0.2806175,0.05009508,0.10857854,-0.21889135,-0.010800433,0.6690946,0.2821085,-0.428351,-0.10886462,0.4738408,-0.41450146
public,-0.05309295,0.027404059,0.23950945,0.021902457,0.24768072,-0.17631721,-0.19522922,0.21108705,-0.22444142,-0.40821227,-0.24405055,-0.14624602,-0.21413803,0.17535351,0.14933446,-0.18902163,-0.14517714,-0.032575503,0.23341261,-0.34297276,0.051478297,-0.13996117,0.48837408,-0.22368659,0.076632716,0.15166837,-0.34237143,0.23601624,0.0746645,-0.13619888,0.17363083,-0.15899995,0.048703868,0.040396966,0.13797598,0.24092148,0.042138603,-0.14298216,-0.16341422,-0.1655203,0.20558134,0.064679176,-0.12224518,0.032664154,0.088941306,-0.13270725,-0.17073213,0.17791747,0.3515251,0.014547108,0.25909847,-0.2721714,-0.117858194,-0.0033965404,-0.42244297,-0.014385751,-0.24837524,-0.26253313,-0.1288916,-0.11509763,-0.23100862,0.23830186,-0.02293873,0.44629934,-0.12158647,0.1860539,0.045441754,0.2496368,-0.20214754,0.5293347,-0.010864423,0.4937229,0.21972005,0.178271,0.22619633,-0.10862879,-0.01902441,-0.33409813,-0.25373027,0.058626067,-0.012354277,-0.08479803,-0.020216784,0.26314583,0.07486595,0.10171761,-0.09127636,-0.23611718,0.17938223,0.2497557,0.31698382,0.011725082,-0.11180304,-0.080453604,0.15170668,0.14606221,-0.1576183,0.13074094,-0.008745386,0.15946521
allocation,-0.0720433,-0.25095946,0.22135454,0.061066307,0.43136296,-0.54884297,0.37139252,0.36444235,0.353218,-0.85944337,0.20632768,-0.42197105,-0.658015,0.30143267,0.06597396,0.15615603,-0.21092549,0.0260875,-0.40815857,0.006873998,0.07786736,0.011957631,0.02186197,-0.030102914,0.11844791,-0.11702068,-0.1676645,0.1807144,0.13094078,0.34030226,0.50757,-0.3163149,0.27951974,-0.25363755,-0.01749698,0.2797078,0.19859259,-0.38779646,-0.0788726,-0.14004348,0.30093825,-0.21955022,0.26673862,-0.12821172,0.38090435,-0.2772813,-0.21191931,0.023429047,0.7165849,0.17666808,0.5599303,-0.53192925,0.19063804,-0.14235425,-0.50852364,0.8767309,-0.004513749,-0.21245557,0.340719,0.014591599,-0.03651993,0.3217313,0.060602356,-0.19244306,-0.275399,0.20471144,0.31323868,0.35005283,-0.020816736,0.36855623,0.37098935,-0.0071317106,0.14652315,0.4715943,0.2000955,0.26302922,0.36034808,-0.01759438,-0.14596055,0.12992384,-0.2282167,0.16588767,-0.05172459,-0.08055264,-0.22034857,0.37109584,0.0069383816,-0.44991148,-0.28342855,-0.24789442,0.26305297,-0.32361984,-0.04403916,-0.2343028,-0.19719344,0.12980312,0.35331532,0.17499314,0.2093428,0.0373925
sector,0.09047073,0.28933647,0.16478811,0.15347843,0.26381183,0.09015916,0.016731303,0.20083332,-0.2946108,-0.012050338,-0.109549895,-0.24057983,0.0974421,0.12715864,-0.05566376,-0.16419272,0.15473431,0.07999833,0.15361851,-0.36557418,0.14547057,-0.29375917,0.20866086,-0.19154309,0.099045634,-0.09407166,-0.21806534,0.26705888,-0.08235161,-0.044110097,0.35209072,-0.1304758,0.12127576,-0.13542777,0.09167168,-0.024967875,0.043538786,-0.15479976,-0.26450738,-0.098702066,-0.08175344,-0.20784266,0.03951515,-0.101917185,-0.06693201,-0.3046489,-0.29778498,-0.2888382,0.26074514,-0.039162744,0.12707193,-0.2287946,-0.24432607,0.09797247,-0.024269128,0.102120094,-0.21548514,-0.067194946,-0.43157583,0.1675324,-0.06618785,-0.02012003,0.010570162,0.5091862,-0.08203496,0.17802699,0.07117707,0.18222883,-0.16038667,0.35082233,-0.17687796,-0.13277432,0.01326667,0.009353577,0.17091592,-0.13295954,0.08210945,0.06317789,-0.15554337,0.11029455,-0.15364261,-0.23208319,-0.021073919,0.3099061,-0.19390084,0.2942382,-0.09152029,-0.13829148,0.40417442,-0.055833504,0.22138023,-0.05444594,-0.099152185,-0.2646133,0.1832423,0.14485669,-0.23733042,0.028942965,0.04530104,0.27023733
assets,-0.12778692,0.14284478,0.17890859,0.11752081,0.26836318,-0.17659941,-0.03560924,0.24881943,-0.27630308,-0.5088104,0.13198018,-0.13827,-0.28684205,0.25596178,0.09089577,-0.22741497,-0.20718834,-0.042458005,0.11285814,-0.52878267,0.10756475,-0.18628067,0.40045354,0.046432126,0.02196992,0.016545257,-0.23242646,0.3138762,0.10892034,0.05330412,0.23772031,-0.33905715,0.27309394,-0.18915969,0.0913877,0.25970367,0.2084793,-0.070752375,-0.21159463,-0.035669405,0.2152051,-0.02202116,0.06930713,0.0584462,0.18144807,-0.39468053,-0.15183598,-0.026805297,0.4349022,0.07926428,-0.022408511,-0.18836737,0.09450364,-0.031653408,-0.37585467,0.18863948,-0.27043706,-0.070979945,-0.098678164,-0.08664376,-0.04014605,0.34097412,-0.024347182,0.37905276,-0.13828245,0.32730135,0.13165139,0.33882654,-0.11578667,0.4400463,-0.012529217,0.35201243,0.062782116,0.3443173,0.43387297,0.15465978,0.1256628,-0.17268847,-0.2795969,0.07098105,-0.012776432,-0.13460584,-0.18624091,0.21915855,0.19480628,0.36870408,-0.30741677,-0.47955638,0.21989882,0.038272165,0.31926018,-0.19595425,-0.23099937,-0.17849271,0.15331502,-0.025160464,-0.16631666,-0.022314198,-0.09423624,0.40650335
